{"wH1H2":[[-0.40362785452230954,0.3381195926372995,0.055900836905390716,-0.4697230729009033,0.17579064036543002,0.32131599090603213,0.030163551045075065,0.30787854534677106,-0.1469928098755514,0.4053465266279621,-0.18473631597625295,0.37359614947520947,0.47817010002666427,0.3968711873299984,0.06718153799359161,-0.1395324371724489,0.3428006248726011,-0.27349091652414537,-0.35778241302571034,0.4637091186073765,0.38762331867330746,-0.4954888614411934,-0.3471923208258546,0.3758561246399579,0.03923509193704666,0.4311399017485539,0.31686497958692095,-0.02957589156409346,-0.1451575466458892,0.20900325323319346,-0.4852585019190171,0.29198271779573326,0.25683585778661844,0.3711911031947849,0.46106645722211526,-0.30723916218241765,-0.22724097300222068,-0.01308444264213926,-0.07686758335892652,0.01937768138415008,0.3612700601363278,-0.4645436259723167,-0.02683537400064806,-0.4019784610962607,-0.39901957944896826,0.34956539102969064,0.34872270858006205,-0.10762573233414419,-0.25340315180140704,0.4210852258165393,0.11364789784557694,0.11580596828318312,-0.08441981415205224,0.03438844158492882,0.46138363015737327,0.2678415144977051,-0.04142547088558712,-0.35265399986623325,0.1831604159964877,0.03462625914105122,-0.11185135582850292,-0.32511558159559595,-0.4645490926846716,-0.25590455239947774,0.09293122464092429,0.3467932907594635,-0.015735417569206156,0.09877845518317108,-0.05198989491702133,-0.39070424715304775,-0.42173431249338,-0.2773552376220082,-0.15249488623659968,0.1189968020757256,-0.49163784419658896,-0.34687356168749806,0.13151276069833184,-0.261824691824852,-0.25167269339164056,-0.21457290598331324,-0.14283946565987138,-0.41801276450330793,-0.4608198098079379,-0.06654524446891241,-0.12770253667282183,-0.4090003456931349],[-0.1205357749437963,-0.38980754974147347,0.19038622061390398,-0.19342421701777135,0.11422847612724074,-0.1499534884604775,0.23645203024942185,0.011983869905028421,0.1774292079352936,0.39668971440999623,0.1364818975445098,0.16870339317593375,0.035634106019500456,0.3621426015393615,-0.14354312623666476,0.12525432978152917,0.4053250659086052,0.026312725924196867,-0.33776036454420766,0.4049761731485372,-0.12824010749075365,-0.2090612736180434,0.06782825010267013,0.4895356412933425,0.12426723288512498,0.42786200258224893,0.1670258506755773,-0.09345713968062419,0.14101273123957225,-0.33122409422439414,0.002365916283938896,-0.397492058162339,-0.19431058464793582,-0.12792154485207408,0.41517067603699553,-0.4635289222856934,-0.3807519669197069,-0.027818539314278357,-0.3580894130388448,0.16499098189440242,-0.11830144797938291,0.16760540439120075,-0.22542950993807764,-0.4942218195271313,-0.03782321330970928,-0.16358397582229023,0.0865182709218224,-0.23488906994857583,0.04988535596238386,-0.01896505411922178,0.14041026163987003,0.09327328010318603,0.08418114547832511,0.09918345497971937,-0.4590429642363515,-0.10739348927468306,0.3989965810284156,-0.24630488599767408,0.17291172999103666,0.24436636615613216,-0.015054997008117521,0.2711592353666956,-0.22656689097757343,0.4434304333648522,0.17187553059715954,-0.062165997638814474,-0.2719864522643691,0.3340012384771167,-0.034694124522694714,-0.2190055860925869,0.050451916444621214,0.12480261209124766,0.23207667477178162,-0.4751428793370742,-0.3901099300401555,-0.3711320165574986,0.4237339670449084,-0.4075495711932413,-0.19827914608360975,0.42087112711174346,-0.4494389196623406,0.08827422718690292,0.0242145371209862,0.23405152107449056,-0.32515471992528944,-0.45867809036215335],[-0.48100033058593405,0.029137464113557,0.27887834823716773,-0.1859882246148401,0.3610733272315657,-0.44072738045682314,0.4813543110203581,-0.010196916231121733,-0.35719500928249637,-0.07219781585961438,0.22524190443358194,0.24074754899795636,0.1864371518247112,-0.41012275915208674,0.2408731569939676,-0.35404558410724984,0.44087491250422495,0.484187090771947,-0.20009653441890785,-0.3170767259590269,-0.42890419591451356,0.49773069614307874,0.018963027774880237,-0.35407448325374324,0.13230030522563352,0.2643905015941417,-0.2537669440138257,-0.4409080316800017,0.13596241560687428,0.37717295878814927,-0.13015557016849044,0.24659070355773216,-0.23877126296851203,0.45433165352742755,0.22391092626853404,0.09825570506942916,0.4426536587916403,0.1411911740028846,0.13617224796727534,-0.27374665483247695,-0.4259526343298927,0.052340305108604324,0.06063744473306654,0.1468506333267834,-0.3917479772778021,-0.13703429424303892,-0.3307179268638094,0.34107536690955886,-0.09604873467480235,0.24344825819759475,0.23876743852091586,0.04903507320058553,0.27315650266213964,0.09794596094053976,0.16131399458851314,0.4348881450559582,-0.18319695387212298,-0.38446126445545026,-0.06672513071343689,-0.1770628811381092,0.300927942770265,-0.02838767600548231,0.030619988825193567,0.050040771032164755,0.022190417569300736,0.1275097182906756,-0.3325453591560056,0.1055179026929356,-0.16096479917258266,0.06808024088127507,-0.4481386157081495,-0.36305746639725667,-0.196412409194633,-0.010392008048605406,0.40276714785739254,-0.4112930540274008,-0.38059146898085017,0.40470300164150463,0.172202362927651,-0.2900449446570559,-0.028472985383285243,-0.13391033032088961,-0.37076759972769213,-0.08053433242422081,-0.372293862492301,0.02782917846154931],[0.20500604455505345,-0.4527087331277061,0.09368769019277878,0.06036356137457988,-0.22722042156808575,0.28643534940649273,-0.47979934008526726,0.014871126935802392,0.3424391524786927,0.2825765285054508,-0.49419395458694504,-0.4072260006402306,0.48595839908888483,0.165825861009807,0.4171913571838375,-0.08215914237411504,-0.32160827567702044,-0.01427114817141606,-0.14268399132488863,0.3311786621667514,-0.36158133865244224,-0.050798639873975704,-0.04815164393656046,-0.06649070927961742,0.1831178739272732,-0.41918576133832985,0.1956241958872722,-0.41552155326022644,0.07356397276731585,0.42581910026886904,-0.2966045615157189,0.3353455063706614,-0.178995819913091,-0.3014668712099262,-0.15707326108319764,-0.1807450023397158,0.44778610661823504,0.3421780165765217,0.39353735409253754,-0.04760828706609832,-0.24712841870092983,-0.1890051841585919,-0.4305263234378991,0.40967251900894897,-0.28131382321555665,-0.48856744208442837,0.47503808005863024,-0.26976911902500456,0.31421732995004215,0.24643530860098184,-0.182812407198079,-0.41920012764478376,0.09868890994288892,0.19532899528027903,-0.008643829114984514,-0.3407973912037451,-0.2891968392256765,-0.06846437619829682,-0.022457733072065333,-0.04449046566559811,-0.459543865542265,-0.2686804670938123,-0.1637565361291895,-0.39497601891793743,-0.37700431687025504,-0.04100379625142159,-0.022391987136921587,0.3651092757418184,0.07050593698143348,-0.37248873412403805,-0.20778659038359326,-0.17302872299994754,0.1602658448230686,0.3280240350317456,-0.3218303712658096,-0.16613691655014384,-0.46255640124788533,-0.40189448819783224,-0.023214580114196637,0.21877905837795653,-0.14274709666448837,0.45538866087708296,-0.16217649265849476,-0.10244247764633152,-0.4087894385873312,0.26198431449571025],[-0.42458889267096234,-0.44258709592036294,-0.34720003175049585,0.3047030747924617,-0.35304017885706296,-0.3337303660317277,-0.04024218998736173,0.47710016129470856,-0.010010855341426539,0.29487164319660486,0.04336673699064131,0.23158632135803503,0.08553635474745735,0.2914929190600075,0.33954964734681503,-0.46667483192986237,-0.21812543437204113,-0.3218239986209429,-0.14777396679927945,-0.10763675207374879,-0.3914499151999853,-0.25222265552702805,0.4663045378643049,-0.32358412955943394,0.03828906404326171,0.2326991627454459,0.30585020944008257,-0.18604144654505506,-0.08688741893659813,0.08903983957698791,0.18237871963047136,-0.3142498342150385,0.041038329222431336,-0.1060039500640988,0.35889389687527395,0.4726406005909396,-0.20896402321997054,-0.410298665743571,-0.4328005660611264,0.4784923285190553,0.3664428623743847,0.32328747294903404,0.4591789624845749,-0.020728287455581418,0.32083508293011254,0.43080688582284743,0.4471534487038711,-0.03715739402866336,-0.20461163553296813,0.19175510741183344,0.19408835760308762,-0.2812788713233443,-0.09694741926625727,-0.1587151500868178,-0.1486624014288621,-0.3869725411148014,-0.3375980462084778,0.46880393720992275,-0.49022514009904283,-0.45890339726611507,-0.10718697652445397,-0.14549854350802371,0.22957733825172455,0.4886868421245957,-0.4773393609319463,-5.51944927335235E-4,0.44459089342752234,0.3524513466411191,-0.16648790228834043,0.09026712599899156,0.4991194732233678,-0.3286853880385212,0.2658380008267225,-0.09402350670671855,-0.43185402729264766,0.20262213242534677,-0.4544524321582769,0.222450536583361,0.2364057125051957,0.34040850767643205,0.055695737876753415,-0.40094516338255126,-0.4326023201505166,0.2178551136208846,-0.42600232389721615,0.042357082939473156],[-0.41966720213240316,-0.03801413909399942,-0.27567416956808766,0.4334192224253067,-0.3288173463994143,-0.02412460520684878,-0.2508461980525776,0.2780275365200515,-0.3365941234648565,0.31212114519200806,0.499949984156022,0.29331899433040487,-0.145406165420497,0.17105678387377043,-0.13618667577365084,-0.42038647471011836,-0.3628089419911501,0.3081618395413189,0.1971825015771529,-0.35713609348463216,0.014609976237316968,-0.3326521919026666,-0.2787611431615694,0.3309857694555193,-0.39152637910001753,-0.12972115488878555,0.24866258203273983,-0.17356741548794308,-0.4416159840423344,0.28661046548563174,0.05769040476542342,0.19773154977340057,0.05252799666621644,0.2860074594422587,0.20696272558541584,-0.3457019422103762,0.0955963232920507,-0.06997237869366446,0.0934363950875371,-0.42830227514870156,-0.48009414541867645,-0.19956456207353213,-0.40432088458805526,-0.4413728928888625,0.17627908446873464,-0.11976430718471598,-0.28384996696044473,0.3222350960427123,-0.29685151811558674,0.4046942139878843,0.23861042313704572,-0.14499092934117475,0.26551829465537846,0.38183859876458726,-0.44940280152604195,-0.48569898995616023,0.17982968658236154,0.04540963630001482,0.445931306495263,-0.10532906615500381,0.39643922223325156,-0.15204074809274348,0.4185219528111659,0.003575886034009934,0.3983355584124828,-0.27223151921825006,-0.3137333659892586,0.14253465228249274,0.19288192832187112,0.29048504036714096,-0.057363807781688814,0.06875025199542151,-0.27721258770337387,0.23485671571661193,-0.3764269884481366,0.4662728548289027,0.2031731006926749,-0.17833672936891698,0.29861952454723917,0.4911384911431278,-0.3964862046916645,0.4359262918270109,-0.3522664365057757,0.17151956908237542,-0.2636000119015377,0.32470298077916704],[0.36903557049701863,-0.2582246309889512,0.1894782614638646,0.40624614507571344,0.2777724017878689,-0.4316081892305318,-0.35740655333415416,-0.3589604786069327,-0.19692889819221004,0.18615180289527455,-0.05093113758608814,-0.16880586812786225,0.06659499643258693,0.10447853784183536,-0.27177439129403314,-0.12808233544214087,-0.26399582030167235,0.46674607086031084,0.11565582737886926,0.41724572601671195,-0.1138394546189363,0.34945304169018543,-0.2515711198830871,-0.35804987731496296,0.1723075051884695,0.47350655693107957,0.024323372953866218,0.28251614490684573,-0.2780070775478667,0.3664653582487054,0.16734229082315244,0.42230721522036174,0.28629327117865977,-0.4375573903440617,-0.34381777211488485,-0.45048818370586263,0.3559360256024472,0.2554703765176045,0.12799177776555304,0.2611942594904765,0.14420586948878866,-0.06752070971143609,-0.04333108969861432,-0.3872524374562758,-0.4339397095966778,-0.09635148215037925,0.32310995550072186,-0.48072728567544276,-0.3983315925475498,0.3207328038408017,-0.2557618735647236,-0.19611410202686363,-0.27737396539111214,0.22807479018801402,-0.2916973233704474,0.45768139193461566,0.38038967784144373,0.42636239670490816,0.2758544251756604,0.4270543170326626,-0.09098966839293054,0.445792710622276,0.2489673783201718,-0.22368571921921887,-0.42196244093161894,-0.2768447317718745,-0.21431058956925342,0.38699736378536,-0.05349646687505294,0.15644922082404822,0.14237070340968572,0.4500105423965418,0.11518506475913337,-0.42899942948933834,-0.43656919789467286,-0.11728098972857326,-0.04811837511003747,0.2726468875638015,0.20629072762604517,0.4603137091880073,-0.12676437685999387,-0.21359111265217845,0.38860965512223233,-0.11072748580531822,0.3066607516853529,0.08316963953063872],[0.3756304245976624,0.2704558473478501,-0.4727666640552003,0.0822333783460707,0.3873516622131137,0.40035300784438765,0.16694001354489696,-0.015761630091322587,0.49840866131699424,0.14122304879631697,0.3274650282546414,0.036748688561134446,-0.3720407403094883,-0.3456500932662254,-0.10726098891361735,-0.3360476197391088,-0.12746520306781972,-0.3646414845211364,0.3337598166240052,-0.4977558103324746,0.021730424673423343,-0.18348514074492184,0.025736219377141767,-0.22492665464884543,0.21477328929165918,-0.09184037771545062,-0.14360723896335315,-0.3867123693441413,0.3454205775045227,-0.1600982180599334,-0.3056854583288112,0.3813076328943401,0.0033044491710785273,-0.3680751580648661,0.10749885703608963,-0.19518473512155132,0.45175373860157086,0.47773499219851323,-0.42517987013810843,-0.28775646879465855,0.3852876348487113,-0.3480927317137025,0.3169034045831688,-0.4997948948657469,-0.015610624167090803,-0.33013805412931463,-0.21205909505390363,0.012099390100224094,0.09083319832204684,-0.2785694456642933,-0.1837248335525381,0.3794891426456586,0.16375092029621952,-0.22405338618195036,0.3591110506081501,-0.4825608539360078,0.044789259764935974,-0.0861762146874937,-0.15449137164340532,0.3878612188710773,0.46012251325031484,0.3780598037225863,0.12184736932735984,-0.1509886363019567,-0.3822501624152089,-0.4411685466797528,0.08524131922483369,-0.10536374065402132,0.22041990992507998,-0.37467718850379716,0.19292434781203682,0.3528680334937998,-0.2923098053876143,-0.19884532607177696,0.16941286876340356,-0.33718229994264315,-0.4349580087993825,0.3432605073049617,0.39829360509682876,0.17591938460546008,0.09363615875175402,0.12878020606399465,-0.3182283807670895,-0.4605711621040003,0.12120924846497216,0.3805200394439372],[0.27865433913848836,0.11108112403171178,-0.24722695234526704,0.4687530952271107,0.39023529727695594,0.02676480903168965,0.4091950593421395,-0.08438831424949045,-0.44641917477360704,0.49716999580090004,0.08240117181448792,-0.301950476271455,-0.2769879531149425,0.14472100871208937,-0.05214348551949588,-0.3036722398795695,0.17311338087728745,-0.29129575706715194,0.218143404081532,-0.33279394694569253,-0.259612139962611,0.24435464887986202,0.39587069504979755,0.43449608146272556,0.33571887288230573,0.020765141443304436,-0.11018829195980717,0.08436138757233436,0.10608669862887221,-0.3171647999464473,0.2950827960582748,-0.17127573716494515,0.10152721842864709,-0.11592419081539618,-0.49366156637599645,-0.14263304356017747,-0.1878901863882907,-0.4800593998687037,0.23237233041432415,-0.0622093499072347,0.4797498144029314,-0.10454659336554828,0.41117902653881144,-0.2583772664972438,-0.33903981012455653,-0.35374523950395853,0.48644362257969487,-0.12266104989578341,0.1191866075689294,-0.001208732297453441,0.49959187791569526,0.3912942418675047,-0.24084159326320498,0.003223185026130504,0.47594683418913963,0.06253183397323148,-0.019272446537821897,-0.2982728701789863,-0.3607979125776468,0.16156728959610767,-0.4740434645376428,-0.19477720881653127,-0.42466405344950897,0.46932069688228417,-0.3792448307564035,0.34315339789133725,-0.4147449176781084,0.2595964502603537,-0.028844284504110584,-0.07619806333016088,0.11486962202500539,-0.3630129537382091,-0.035646019491324066,-0.3032738298526919,0.33196651553038836,0.09180366344291313,0.24593421707780394,-0.15575267058053788,-0.3688384594346542,0.3846124540299585,-0.3027664550573814,0.44552898285841525,0.09137446711854491,-0.09481671070440212,-0.27940812220225564,-0.14536628734035162],[-0.31531381443489814,0.4641325669602959,-0.3447289460163264,0.3130475474477853,0.3411004095617073,0.07026962716456009,0.09311740039288796,0.37751274203732255,-0.1893534364614895,-0.37736776241888537,-0.15942028890269222,-0.11438813836781248,-0.36757488235423885,-0.39657671545343454,0.28248452599273766,-0.39560274798292916,0.41960980943253134,-0.2034625738736836,-0.05699062788880305,0.41146167758556806,0.10008585667331038,-0.22390718383191355,0.11058356267245706,-0.1568027385067352,-0.28568262184322013,0.41036025793895803,0.49598554935612693,0.11159199930627495,-0.13479923089267598,-0.0912925840456773,0.026694425076545403,0.23876381896436638,-0.06092451643917196,0.0026538032683065538,0.045592899984343904,-0.21246551956927484,-0.22727282672372762,-0.30314247873584965,0.3784072700941328,-0.22330304474441887,-0.4718673729945927,-0.34816771414095904,-0.03819018569949861,-0.23876895550360844,0.15485977623432234,-0.3325809697982808,-0.017102571759921914,-0.26942574608010494,-0.030549922077300562,-0.07548646685752936,-0.22920005119473785,0.4321561725915637,-0.4382250294917711,-0.38772223958729857,0.0024602016330877996,-0.03724417698407423,0.45027161952102723,0.3190393818790105,0.13716719312683345,-0.013156110177881541,-0.34887231378892736,0.09731015564971524,0.3782126082046485,-0.26107770984866896,-0.39910107878196854,0.42683084461120036,-0.12491962997409167,0.04597587318101215,-0.3222931584053922,0.3942766673492527,0.3258674567654759,-0.03349789632089473,-0.09692120119641745,0.28423375822708896,-0.38282638624309084,0.2841867048001502,0.2746558113663071,0.4332839441645032,-0.3525132791954345,0.01714394982222245,-0.4205916262607772,-0.36248849607356415,0.020129120851778537,0.3077428049290546,0.4676640079969333,-0.37652789976579115],[-0.13687990516355286,-0.45660896199946577,0.030164698069194196,0.0936409445726406,-0.36415201235878736,0.325251090971726,0.11353606239994751,-0.3604166186035396,0.4162349039596036,-0.05028667509429885,0.13396484889926685,0.37956790795253603,-0.17288404476054597,0.39655359145231805,0.20454442353710267,-0.4779315967299782,0.45684400295029837,0.42805364728710327,-0.021337082642608696,0.18257823526708306,0.3566699029674104,0.29496453062759764,-0.2700278162935016,-0.3116137419396524,-0.043762484820196734,-0.2819553687933658,-0.16110999224890188,0.2944408500349732,-0.4714285584463649,0.2680057475383587,0.03625195651802504,-0.29684538814117967,0.1572248763159213,0.0020518783387442063,0.4666435302746379,0.031979231810628006,0.010793886672194497,0.23179707697647267,-0.12289288487642513,-0.09519363503614664,-0.3862066316270798,-0.4047995911676531,0.011332208454589265,0.15672708679692493,-0.2820709240843339,0.18425759341264758,-0.4048980446855742,0.23640870641974043,0.32408948241090096,0.3405400028719865,0.1356826302015105,-0.23367507987089253,0.38291966156177837,-0.1277257216936497,0.1260065918642761,-0.12169893175332358,-0.28937087591463406,-0.1304939297224077,0.14391420324061943,-0.11968649692411526,-0.30327603936987046,-0.0020058018925173116,-0.23261691432489007,-0.4697917498579175,0.4516432909206517,0.13783220437027732,0.18858812772223765,-0.30701932083614436,0.1448188381253004,0.499396373391653,-0.09720087580556547,0.44048486994937286,0.4174650343423153,-0.10292943484422967,-0.12746285007256164,-0.28408257948512206,-0.08055258560984302,-0.30970017868059463,0.12307520876868316,-0.469852715985573,0.21586431299039888,0.011876479020936359,-0.1877180740635307,0.28293980937051544,-0.4634823240373134,0.29496375069557434],[0.4359720066774534,0.20934954250783655,0.10023678131665859,-0.21678653294980021,-0.02065929297867286,0.14003296785189268,0.03605799854919789,-0.3375635858291338,-0.4942762902453346,-0.26604070713480743,0.24455294862432875,-0.3123651865141568,-0.1141618914251713,0.09297308193786757,-0.10486367539109442,-0.3041913658852603,0.11382388597795479,0.19989017407174003,-0.3610263294028784,0.1927982217151234,-0.0691804076188316,-0.06471595810124875,0.03214872849124506,0.2815284247452997,0.28247007571432003,-0.47715333290226924,0.11003852023474192,-0.44063051695633737,0.4736776848106298,0.1291847185086168,-0.46861592563196375,0.25393295801327587,-0.2479267460751129,0.001137847353252397,0.21933311200032624,-0.21052839121949152,0.4510962552696347,-0.037816774089930005,-0.03322941814177205,0.18015388604386617,-0.24576144842215497,0.3092162652391861,0.044541665326763846,0.13183565636812478,-0.3960807276304301,0.15197451082949154,0.4537110120379224,-0.4994473374857106,0.2716233948253155,0.019598169695072776,0.09679118676111631,-0.19619053088529093,-0.3696501817468093,0.1222971645312072,-0.19208776342065215,-0.19015826579020378,0.2260792689286979,8.212337653134005E-4,-0.12180679328319854,-0.15961958129893228,-0.16811373717021816,0.4224062665951711,0.44011589526089756,0.31404807377262633,0.2864835411597335,0.2890963323606127,-0.16651028911691823,0.230368809603698,0.06840126659916446,0.01281798554326763,-0.13436395384706523,-0.2515246802325639,0.23766742300195975,0.28130916615763946,-0.300290820090219,-0.2500522708674946,0.08877016363844148,0.38998245482617133,-0.04238977685116141,0.29182058529574983,0.10184628981296251,0.34702836377020174,-0.49226073434194173,0.1536459500707411,-0.44654506267604477,-0.22745882181290522],[0.32287024473024595,0.2616023130416679,0.453958848054028,0.20717632552148701,-0.2602778855072857,-0.3670100845152533,0.3154500646908657,-0.17817492686757042,0.42933865964474127,-0.37394441184132676,-0.37767886272039397,-0.32298147547074896,0.39617873924698577,-0.29705889278271325,-0.2240037591628511,-0.3807504221110357,0.3638575384633993,-0.3823492868149365,-0.2839982547655243,-0.3788716296508845,-0.023231363400180727,-0.07371477748717081,0.3814686243528721,-0.12673712157637873,0.34935556375165744,-0.01660825302950575,-0.3296755159786533,0.2179830603152122,-0.3714090751632897,0.1361290952101033,-0.42215443697252,-0.42149631164402424,0.40025973294015216,-0.34294888272503654,-0.24809526567656637,-0.11815282635395286,-0.034066808716482266,0.06666177849971566,-0.21083592426249764,-0.4001752797041137,-0.2549420827983626,-0.11150365407894935,0.2146257428976387,0.4396001710623013,0.31537445104421,-0.44766373042546326,0.23636850425283062,-0.09616184522337046,-0.10508128291950769,0.11526540594267409,0.047961102674623834,0.4101638620804464,0.39014819026511594,-0.2943723997333566,-0.33704153069705567,0.4106392676676097,0.4872744185966785,0.11154696567801548,0.009049723033146995,0.4841862634992119,-0.35232796288233326,-0.26647603973695433,0.2838422987720749,-0.31163539580657595,0.2832738258467825,0.19972145065401004,0.37992936312275305,-0.4483618279868965,-0.16584980981560382,0.3029070761828808,-0.4761975874580251,-0.036759161908388904,-0.05198917402193248,-0.4403804567115015,0.14133525186903106,-0.12502162471889056,0.4701547823617366,-0.38502219469685106,0.3619786008832834,0.16778065188179891,0.492435171985526,-0.07934580718152795,-0.4955301250138925,0.2555441149574379,0.28109255583353454,-0.4011164379035569],[0.3487758075740236,-2.1832007896605E-4,-0.49414842982414264,0.17198242020438037,-0.007849882645538209,0.2908228973757757,-0.17353702592523756,-0.11529644128050964,-0.38839765280435523,0.2147851705929712,-0.44208652420802574,-0.3241469574270054,-0.48926188323978426,0.07026176620501035,-0.16818581630774765,0.46594823174679756,0.41584495171830604,-0.37534979185996775,0.39901767619138195,0.3192968776202817,0.10426215891501389,-0.09272941274667557,-0.022697100092136657,0.2117290821573773,0.09748700050890846,-0.47510011028411037,-0.16199395727970856,-0.41068467843121914,0.3321337089823262,-0.04492466692126729,0.14676457633684437,-0.3612447810875381,0.4337758594869956,-0.47650417284139346,0.4260807616448109,0.2067237940457144,0.4618667232647744,-0.1959222686815445,0.39120008932899775,-0.3966873233300131,-0.23165398116184432,-0.006302921510851989,0.32583895589449763,0.10380617444432072,-0.08179395591652927,0.4083775698690043,0.11058514106321204,-0.1766169561570855,0.4572038432513367,-0.37634024802427846,-0.005666507732646653,-0.2190634184263881,-0.31992976080699287,-0.06088629754559238,0.20790872342167754,0.3910574193931111,0.45198054213331995,-0.2145663365598547,-0.44093438981993605,0.327324598807302,-0.433283931257305,0.4122803233859341,0.21934674997680714,-0.3145978771908584,0.08685936003128059,-0.30398783701316734,0.015816188964307698,-0.35895963640766804,-0.3954698726077921,0.18867454760016078,-0.3255227050252786,0.34593210860447066,0.38558336374867974,-0.40690854032347346,-0.3727785537448738,-0.3665242945158744,-0.08414571420131789,-0.3063685450031889,0.19044352429658107,0.21684877055475227,0.454950057353417,0.3981956720840799,0.15099962370185982,0.4533974609963589,-0.178748991925349,-0.04579688054905118],[0.05397058591827064,0.42219807956011823,-0.2188009101952223,-0.41017623810093484,-0.22326516747274605,0.01574939530153685,0.09661496826819005,-0.1985622259296278,0.295142865224682,-0.017894729035430323,0.49569915973823453,0.25927489888347166,-0.09987580951785635,0.3703590155323515,-0.42346302459057394,-0.16458485121494504,-0.49315229866425114,-0.3697573712845904,-0.0736593421938806,-0.4281919507331742,0.11359451957886868,-0.3042948977769113,-0.4546732729676679,-0.4993054285762647,-0.08620820156287401,-0.2573137679824665,0.0010399946510326608,0.10579246255286434,0.042195205537406855,-0.04709701875146488,-0.3928996365369398,-0.1301681837895664,0.444996674141825,-0.4616816465734529,0.3197620282501362,-0.20749495001623153,-0.09632711516965187,0.4850628636107541,-0.02366069446916852,-0.01737889542851434,-0.18632052426675205,-0.03906875262434262,-0.03853315581899941,0.4292310539646108,-0.07836535778291664,0.09717831268408361,0.3803265342571476,-0.1612815715496121,-0.14157496307064787,-0.09681092976562955,0.3423870715791554,-0.011675901448432224,-0.029294160861252472,0.40170059095181976,0.01486650460670269,0.39130247436117016,-0.3504439798915503,-0.31739621734734713,-0.30795798931024587,0.19488196815248693,0.08258883118119709,0.4649553572490722,0.24469508282375796,0.139429400333979,0.11460674096489265,-0.07031833647012065,-0.036605148358948236,0.09569452491832686,-0.30807126776953664,0.03955775711789711,-0.010014427222514555,0.16673769182952425,0.18680754288688894,0.29839626401048036,0.24355919328687836,-0.4078803872148412,-0.24910731530636,-0.08201743644628967,-0.009642741907050834,-0.27584055436638166,-0.2695146447223966,-0.3408555617038024,-0.018538910408254616,0.1595435747120859,0.09136863694745079,0.19244510527528036],[0.38779262234877643,-0.2957059082583765,-0.2527125851295027,-0.3156585489597894,-0.4011369813297174,0.22608250674625063,-0.336309964766606,0.4562495131374351,0.3198695027548336,-0.39489888168912435,-0.3828664914114205,-0.013188432854955856,0.30115577098664104,-0.0668196088274523,-0.4692072484633256,0.23176071472277682,0.46471442154734677,-0.16943215305619963,0.37780391816419734,0.22113016098242577,0.1543248380900787,0.25076046334721047,-0.25328979981759725,0.16015594032173763,-0.2709165824299946,0.4260084732025037,0.2970685070254294,-0.19192610758196904,-0.25550279846518564,-0.33041379965794904,0.4983132552589177,-0.2618875837935699,-0.4790235490848629,-0.40434912589703087,0.24126389869770715,0.19233497920870712,-0.013525053101826834,-0.0565121237834153,0.13920091415112745,-0.36341270101973167,0.298191889358006,-0.3998329526876453,-0.40577565631107915,-0.20634413271404728,-0.10233783866134316,-0.39588893540575787,-0.005351807366141159,-0.11315380836731304,0.3342271122054198,-0.11819611503680083,-0.26952700686136,0.061540529658918874,0.4037907721981574,0.22084353254879807,0.06651736817146292,0.46889639193848176,-0.10706849067630075,-0.48522992024719613,0.29657973499324586,0.2936988519129039,0.4928523885869779,-0.37142354800819655,0.01703878120218283,0.0874811765781961,0.2533183058479672,0.32853578428521424,-0.19540829250942005,0.12837985074886793,0.28364151288323525,-0.40404359017994607,0.060367631428499324,0.17079139827894696,0.275941184864007,0.30170102248974306,0.29144274257345226,-0.1292493768758073,-0.1746827637606284,-0.34321564091928203,-0.3591771626690724,0.3770505875934058,0.45224217581754833,0.07408922820429997,0.04824818929174146,0.06347683949544058,-0.3056110585104558,0.07721785085212651],[0.02671423946428919,0.14412988877039246,-0.3717229880897682,-0.32527782947220973,-0.32660875684744006,-0.03833892477369061,-0.2944672971324761,0.18143263694378275,0.19866455103005953,0.06734904368653827,-0.15577591103901933,-0.18666756013582964,-0.04669311869907267,-0.1777046028414363,0.3026445243270629,-0.4915999349300183,-0.33866795428883045,0.14061949252215733,-0.018916540039969232,0.3330697617130052,0.3248699839758433,0.16838428334230382,0.44653657688313997,-0.4775635614430165,0.057440483120412056,0.14608624473503606,0.15597196054144513,-0.3279425910133388,-0.0767064143379913,0.4378943152750947,0.06568276303055698,-0.1498193793229009,-0.286977656194782,-0.27257562705155813,0.05742078784265281,0.43145506186536864,0.4694436948210563,-0.3223133017054275,0.38641988041700615,0.2666560482190522,0.4927817475000805,-0.06805337315512838,-0.33791826026445027,0.3976841251999633,-0.4995231583106229,0.19258886320953794,-0.29098933932698434,-0.09692649855679902,-0.40551677657305774,0.2566783102544805,0.02424854865640913,-0.38352806557007013,-0.30229339323811233,0.30976167420073175,0.4459746501020898,0.3990309067896921,0.16127256477379148,0.48355559815474813,0.07959918174301195,0.3663712102038451,0.3156054161086951,-0.33148179449634385,0.4890937073223509,-0.028233800886833693,-0.15916381797905776,-0.16109619815122822,-0.34543430203156167,0.1294105444693301,-0.034152076800768594,-0.3042497233714867,0.22149782379267813,-0.37488011510946495,-0.32969507352507677,0.262351647280034,0.1227378692560569,-0.09346719278916726,0.26030204731397477,0.17711944623710207,-0.25876211414754147,-0.029136882891387827,-0.08419100015487335,-0.17966236483321996,0.3997065527681246,0.4754772342506076,0.0668739956689115,0.0841681403416833],[0.11275146418755477,0.38504785622289417,-0.2544103246460171,-0.45063486349028226,0.21775346093678916,0.43876163080579933,0.3821136299054996,0.06750766709971912,-0.2873720412210369,0.47203524826923804,-0.13442518870574072,0.2641623592114035,-0.12820676552647947,0.15942092060357127,0.07448630290560943,0.2762388907270452,-0.01392079240149402,0.05885844434244303,0.49632363665509194,0.11590295274193407,-0.12202573623991342,-0.06784166631384236,0.002217414825496644,0.41376235405628226,0.1805221031748715,0.1925761042821934,0.32024757366350964,-0.06435559268115087,0.23634439482509884,-0.012434619248607781,0.2596160005727952,0.1901335254055001,-0.1273209950806209,-0.13672697515279297,0.2780131803600878,-0.35186039524606705,0.23898792805633973,0.17706704872162327,-0.44421643963231583,-0.41888003326547973,0.3556027670062638,0.425363799941919,0.3430334788665922,0.29117828255404743,0.015039978797672271,0.43624811951740927,-0.020385532036042986,-0.4458838043885821,0.20203204303698885,-0.060143905262423636,-0.34704610597472063,0.4256145805419712,0.2539845260243573,0.3742173224003861,-0.34500601809336784,0.17107288150441724,-0.42951633506836173,-0.08977046189037763,-0.3729609542840254,-0.028763157011491458,-0.20135753588526228,-0.4133347706877193,0.04010039556751155,0.22859626068044991,0.07048792864025277,0.1345867183756968,-0.05163329851302034,-0.24636410232409356,0.04925578274644027,-0.45972782110863064,-0.12528264121409682,-0.15462553762036602,0.25337320413754894,-0.3532677653979329,-0.4602649342492946,0.2972281711483611,0.37007421228679505,0.1261227122880597,0.02946279509720795,-0.34291352591524826,0.04500620148278567,-0.031163629580795438,-0.08781013135772575,-0.35041014588093033,-0.060149428535667626,0.22978242648128533],[-0.2391595600739942,-0.4710495241921139,-0.3131060248679085,0.1483394245707056,-0.48492297898994496,0.2722583645308986,-0.26234889746300605,-0.08430616002389935,0.12602053548505,-0.0539325127198691,0.0020540206367578584,0.3017529596624676,-0.033472276680530544,0.2831572253825796,-0.3946132002240821,0.07354727344171252,-0.438744374199582,0.49171670778924825,0.05205865767352169,-0.36198558688174565,0.2932817278838066,-0.41419913441217693,-0.42152752903414814,-0.37571701000695057,-0.12216203474751441,0.07375866391453922,-0.4983399390090786,0.1840510710382366,-0.441244707973903,-0.32956457627364255,-0.07398075283158889,-0.3666188137290307,0.17950470011981134,-0.1906971943258745,0.2574020214590427,-0.3147902627920639,-0.4917398898183495,0.12227178728280352,-0.4080328164083129,-0.07090446486817392,0.4551968671290194,-0.27220495206428397,0.19662482115847923,0.4032085524395749,0.11027921865292478,0.1219671782003886,-0.021436012812611205,0.0732869977613646,-0.1489210578075265,-0.2973175436003984,0.05326935684988765,-0.21573324739912692,0.12270642179664948,0.47351162910412015,0.26359611893825174,-0.21748595439208096,-0.12427541154394095,0.2718105377520489,-0.22311302228364993,0.2200692302952315,0.06295516629964948,-0.05532468915686428,-0.3072211943542027,0.14703522763892296,0.04237540389409222,0.2567097745042929,-0.06873904434691358,0.3742215618884709,0.21084350918083805,-0.04482672822631506,-0.46128927510656426,0.24538088641737799,-0.2978214812606531,0.34092754211813125,-0.05095383424456301,-0.20314794062773933,-0.47683890127475714,-0.10229623450070202,-0.3321999604439696,0.00214969773196938,0.07230947790677134,0.01756183286648416,0.3088329921372063,-0.19998279833659593,-0.41117549148626764,-0.37298387600743066],[-0.09343207448947533,0.38668680002457223,-0.2871132868156987,-0.43384738144388146,-0.048958119731903005,-0.18343370297604478,0.003527238635075758,-0.09783502878670025,-0.3512644239852458,0.30029932990986696,-0.04341636943259253,-0.030912343459490232,0.49905463291871033,-0.28487796332485915,-0.2072093875147032,-0.18289348191941368,0.3945013404991081,-0.2503340711348674,0.04484483357762248,-0.07232151080634597,0.10198875914313232,-0.20616697774194037,-0.2376781838142723,-0.4952065715601969,0.16341401849106252,0.1540962981552585,-0.02538748460773399,0.38806325500828853,-0.034478736039772806,0.4255543982229094,-0.09541471332701856,-0.35007548902788077,-0.02775144336468094,-0.11570293840276369,0.30946935436109735,0.23709232225965549,-0.11283210240898611,-0.4228869333195119,0.24049356883238093,-0.4044945638851444,-0.18070958460126807,0.38030034850530015,0.4591042512109189,0.0783531026279437,0.3624241848580185,-0.32468646615866936,-0.27487550407142747,0.07837671058858697,-0.13356509442318187,0.4462110807494968,0.1810069519412172,0.24849025688622128,0.0781747080894003,-0.457659126973191,0.09636998669041708,-0.12113476474084406,-0.23949218665490024,-0.43057057157708467,0.3082979915694125,0.4839776425964135,-0.14022359465980516,0.37321671181652605,-0.20457648553043672,-0.08028444772935928,0.2852132339924639,0.3620046639195197,-0.04239984080900494,-0.10150195544321605,0.38822276705540615,-0.022035115221476387,0.3380121751291456,-0.4005427214592059,-0.21488459753363598,0.4717764840370404,-0.27914232635603964,0.1810872391091487,0.2537946259320679,-0.23885733320278557,-0.23472041793243414,0.3953646452904799,0.05306012049208453,-0.439039709322809,-0.40499064780079186,0.175198202081286,0.16260410273003623,0.16139404218104536],[0.05322585030992777,0.021164782259658566,-0.37755727514191506,0.19983255191172966,-0.3465778968726513,0.2488423020454117,0.36243776786708704,-0.4763187699613948,-0.3903889007622403,-0.3253494305761018,-0.34427176611745347,-0.22682757148717403,-0.28700913189861166,0.11596314710715261,-0.39569444080366345,-0.3731494141709437,0.237228490020435,0.16035467251222035,-0.12936974842530857,-0.252883847205297,-0.499188691967166,0.019199695937889505,0.20610134443820405,0.33918930074128195,0.1924530708567327,-0.0775592583975484,0.19535497431115167,-0.10591993080646656,0.07433147005939988,0.4341947557503182,0.034781601609712,0.12462905606053021,0.21797290057536423,0.27296839654546967,0.09431608232883382,0.323408875586624,0.4988889155463688,-0.2943947828402198,0.4734684411994673,0.3722529126159144,-0.32139147746276653,0.35068764321838775,-0.2442725803518957,0.4154053100539912,0.03653898802624789,0.2749700815759849,-0.3101168173392007,-0.22823837027954452,0.17912693901328902,-0.40448046937741844,-0.4175209713390986,0.006397173882854323,0.35008115542418694,0.4105926832217395,-0.2274832984791828,0.20755573094992796,0.29295658266383073,-0.22612080798449752,-0.32229659425530444,0.42249852411401434,0.4761892172525075,-0.40040660760869307,-0.4490570391564612,-0.10591040687141862,0.28070945764487176,-0.16000288103271565,0.2664377751049044,0.20972056135219463,-0.42844823277057065,0.012288896571205132,0.16668172727801545,-0.2748463550999978,-0.07258355222148372,0.1683955342374046,0.24478892683171805,-0.34191061858456007,-0.3140708137069206,-0.30094558690871,-0.2889831220209744,0.05974115241686184,-0.12261743219001542,-0.05732441429746138,0.2980065579349708,0.46742581107184467,0.06603337020135491,0.4298250863911306],[0.49617658920390406,0.4171556710772365,0.09556779010979599,-0.2642280782429385,0.2788718188052095,0.15244445918580496,-0.25586349605836944,0.33639279690964885,-0.2237183733914362,-0.1959845007197869,0.334400155788514,-0.4331692347018903,-0.21219321220224419,0.03482768780980228,0.41531499028333185,-0.23234543237219552,-0.015532262526362972,-0.35418879432211425,-0.26507266842621113,-0.030132139547859094,0.14611159873965507,-0.0800690583600806,-0.14276496903812042,0.0179689219321707,-0.19741113592731052,-0.4543269945192868,-0.05878743109153839,-0.14063771750496645,0.2037351154196626,-0.19422425613187555,0.3963858411671586,-0.1612235094121125,-0.37009299294991904,0.3430033196858614,0.3568817854130072,0.22794268628834247,-0.3270143382056767,0.2219864913757188,0.17466686916514484,-0.10635914358960885,0.2671752419535912,0.19463186648020914,0.4227276283135356,-0.038677964162185496,-0.07041223097448035,0.04632739455388801,0.22023539660661529,-0.4331338495087569,-0.11748002144029657,-0.34885150797223075,0.04427691960366109,0.30563709972413877,0.47249163434706043,-0.10350438726063549,-0.4234795184303577,-0.214152380464546,-0.424471086017401,-0.04892918577827787,-0.4517721731708011,-0.2276509693164841,0.4838409474018791,0.44482726582726917,-0.006690283252655305,-0.23268876141862616,0.1059505978414047,0.0055024454043582915,-0.20333714620980636,-0.4841388125718482,0.1805059951142527,0.2535719930695284,-0.06618492969859846,-0.1524012548772662,-0.3965877234564178,-0.20406184017002915,0.33794389819169146,0.4690105095336795,-0.10141233651429316,-0.02160714862035562,-0.09837611308797045,-0.19284554052344438,0.324561897706097,0.15787239027218336,-0.27680416438379074,-0.2284113592634821,0.10229906111450249,0.03774733591092372],[0.34144138360015475,0.34936987253574114,-0.22595915508528974,0.17286708427462694,0.36728449686970377,0.27704917852339594,-0.24136923719301817,0.0958062481737153,-0.38246903627836026,-0.3560575075900704,-0.2443067832121949,-0.3582646135971602,-0.4168040921440749,0.1725570888938578,-0.23079398189894484,-0.04343378318949376,-0.1762414727528957,0.09490498324749852,0.17041854092005582,0.3614971844468824,-0.3312778401579428,-0.0024631793598278717,0.4007321689392702,-0.2831876197724109,0.4291469293638476,-0.2565189197082861,-0.3729265688014519,0.17876300828428415,0.1743611443489821,-0.40412508784370094,-0.09454559475509394,0.27558743108291994,0.012847145493018353,-0.034075588678542545,0.18282910141839925,0.04220223739642737,-0.26866441241570804,-0.2130659352954054,-0.2269816067888244,-0.4521767438426011,-0.4075679958140995,0.37649637325340446,-0.22060946573686935,-0.4732477526909836,0.06863803005552083,-0.20946593463002672,0.305147688990143,-0.02020862094022613,0.2994189491349116,0.095739514431049,0.1914837938937478,-0.4477757651170996,0.09800810270313343,-0.3089434440180504,0.4545423757338921,0.21402858085342946,0.40592820585324163,-0.2057974062708079,-0.44598244311673885,0.26896264329854114,0.1957479628797798,0.4758293814115676,0.11940518685183998,0.001393764494230787,-0.04361774453481315,0.17177338701967626,-0.21567464280881565,0.3332136807912329,0.06028244268102856,0.43294713354402903,0.33500135227105476,-0.2920874351724445,-0.49184683747554114,-0.21722411848643708,0.4658945230571948,0.0448597869251427,-0.22562981726397802,-0.05631609999448861,0.05365822939779741,0.014065658274972193,-0.2649360352236717,0.366987772063342,0.009988249354430656,0.07017606945449939,-0.049128314434924825,-0.04534548642997982],[0.4546112908432721,-0.3458228079976855,-0.10234985721034007,0.0967345050595978,0.1615669099414766,-0.27773512734399597,0.09098091178995071,-0.3351193533991059,-0.024897506641098355,0.2935596666792184,0.43408778715663376,0.4002164620085563,0.16591504610293406,0.021824820555756297,-0.4661735349374606,0.2129179793975816,-0.49586270542968935,-0.10892868735773864,0.17569435452633653,0.2712251186430048,0.162380098364725,0.010910652396961429,-0.3736513760807698,0.399200511130826,0.4303067070337788,0.14474236062699675,-0.05909142198404571,0.22540468969662153,-0.37837080888584707,0.042340067111841906,-0.007641472802978444,-0.2712414373881574,0.4850804401375114,-0.13187359665678555,-0.48834450967902265,0.3132154453714955,-0.1071697019188057,0.017403588670216075,0.02968576376807397,0.3094664725234002,-0.4270224582767689,0.3950330776953671,0.24600307291408274,-0.1502450958449315,0.1771639267476871,-0.20546581684177379,0.014320457161920985,0.3909763202915538,0.030020716610308806,0.36029840548352476,-0.16898345819182992,-0.22840681512617145,0.4940716124879889,0.24159230418355238,0.4404565056139711,-0.4205059576956124,0.001880651941549516,0.4542488510234436,-0.07028322417736532,-0.21922118050246653,0.45664750206880156,-0.34557682058301686,0.4753416285252611,0.013553879775745958,-0.11688362992934076,-0.0014842610050845861,-0.27395115432570893,-0.3138288915843819,-0.07742070504000653,-0.485657858473454,-0.34215902327035774,0.03594789003876031,0.008918214581992379,0.4408556364715678,-0.37823282781622813,-0.397744404628954,-0.1629553492792375,-0.19279548915973255,0.21962041203877736,0.1469662435003114,0.0407593933050554,0.11663372242089165,-0.41085664612479955,-0.08440159150286797,-0.16603054242715953,0.3767161533687291],[-0.3421444943440295,0.274104896480204,-0.26263750235014716,-0.12537424392175334,-0.06659690459758272,0.17909637991872418,0.41205422688727633,0.03464110976478185,0.4383727707111421,-0.35660310884258406,0.052387272302838794,0.4147951682947215,0.4687982398266527,0.3441783997906269,-0.24802523717266312,0.4005622772905525,-0.041870724634480716,-0.21247674555099083,-0.24975426576540438,0.4357016397712402,0.3622204777399589,-0.008884926303152185,0.49116330481883774,-0.3061482882675406,0.14593689096803253,0.4758600823201905,-0.018548958281128902,-0.060802838712432083,0.14826263940174622,0.46759229574574046,0.022576642267733593,-0.04949337180808122,0.33033728445908617,-0.3983821068901786,-0.49109372063067736,0.29006585788222106,-0.33036581986436186,0.09570530709572844,0.13385718312943917,0.3875073175151692,0.2535342149774965,0.3112293967856058,-0.4734605071616256,-0.12173579460871242,-0.053163272098911474,-0.1424705740586132,0.0532934533979712,-0.11264671174210272,0.36028922151452547,-0.08885775199900425,0.2616910572281478,0.48141722839816503,0.23100625113291084,0.21942368341843943,0.21898603147112394,-0.17456597768855742,-0.25931331212390285,0.33717260949307937,-0.19734020518573991,-0.32477240142513486,-0.2561719936641942,0.005223588710353222,0.3376252827010582,-0.2871098302014725,0.35567510940460323,0.2215761607487141,-0.15718587270187367,-0.11054662107091284,-0.1415696607607012,0.4784793397714716,-0.450712558021098,0.3776220407518681,0.42429021244525844,-0.15700736075150779,0.28267414919733636,-0.042889047041903994,-0.2748361210202158,0.043895635894145024,-0.23534541735170422,-0.343898892575098,0.10146671375550886,0.49442005002690015,-0.118628414407422,0.2545593536101869,-0.4038277338296876,0.22812957989815363],[0.4910655038842181,-0.18135899033045966,-0.1746555919046423,0.054374995936710135,0.39889288754132646,-0.21987792343064516,0.3526604253335953,-0.1498975836120522,-0.2861966941999755,0.20078436582604586,-0.03702453194534083,-0.20360463878648938,-0.07948722144594045,-0.23109722097153418,-0.011232903746428491,-0.45901796655974514,-0.35097403828728224,-0.23653854312314648,-0.3666614376011429,-0.27795871336164524,0.30482366190541055,-0.3085488801700973,0.0559474484564918,0.02399184750771044,0.4347463050298922,-0.4454227572283759,-0.16343340496716618,-0.047448727608538466,-0.053232386419848066,-0.26606511863133997,0.3217722326065463,-0.1857972320669372,0.07626759862734189,0.29468266691664,0.26829391673350533,-0.035691003282339984,0.2970770486292563,0.10747481540137804,0.14704976241357037,0.24846428554270106,0.212480798706968,-0.4406130165926826,0.4480294764747016,-0.29672236565755217,-0.17046974325529618,-0.21570192251519427,0.33517681575940117,0.005630882525159642,-0.4805699241152511,0.2811666681161693,0.04046212957341622,-0.13644238706335832,0.397428259906734,-0.4916328533273997,0.45762480079448853,-0.4727597672535606,-0.1824476297777199,-0.456772061212361,0.49860424910599965,-0.13477584801576303,0.17069898674653328,0.17813967051086022,-0.0905325380241564,-0.0012007667543915135,0.1989978186231306,-0.11192151749495893,0.407680014285573,0.3166009023310631,-0.40496479097252436,-0.050883786082315585,0.19885633023689908,-0.19816585020199262,-0.2585631761430578,-0.3865349791997429,0.15866461910678287,-0.0038742151003059444,0.06447237644894122,-0.346168253132074,0.22435015500746358,-0.40313862822506374,-0.37523980614941643,-0.2216672347431593,-0.16961948582114483,-0.3610345413930929,0.24881269831827935,0.38694723107024476],[-0.4559954106704348,0.4474345599982522,-0.282921335598328,-0.1085367625850141,0.409057066614098,0.06353449361741004,0.267301615745523,0.3530975503395598,-0.10987156715740465,-0.3545750713120889,-0.05357201191538641,-0.49455354632505155,-0.2757400479415104,0.42307561291490203,0.14996300545584196,0.3251520181921346,0.4336125027178712,0.1476904973549471,0.02458570133879845,0.18864379254518382,-0.2699038354574004,-0.3825428099171001,0.2779992514237579,0.31054380422394523,-0.4482622721113304,-0.2157090282184615,0.3394061771921958,-0.40220206018743865,0.010601517033024921,0.15034435882581243,-0.25533736281717945,0.2733244159420164,0.10336829078669296,-0.3515959175099288,0.08207975523501998,-0.37605397218475856,-0.3617838467158595,-0.03310015983369197,-0.17199599124974851,0.009599510554149426,0.46543625546882705,0.3280998982818183,-0.07427725743877178,-0.16570779206661446,-0.23574500397559184,0.05717079069539632,0.01690533238360936,-0.47599768505224116,-0.16537578584969326,-0.10987058736627597,-0.17829613877431838,-0.3173040114548795,-0.4297211467572778,-0.13968202102305882,0.2818019555479512,-0.49513907908733834,-0.4518483465793285,-0.22411669786427946,-0.26988596720771973,0.21143251050770273,0.4592727574317451,-0.24515642886871114,-0.46849866312842503,-0.2542843779201742,0.42757171371965863,0.01967766884712796,0.35078547040167396,0.21688104025723998,-0.3844622561585481,0.16997342291779127,0.4475039119077874,-0.38915729880804595,0.3994843786255412,0.44952234537960023,0.1712661121170912,0.10179803885142924,0.3122020093004856,0.10335080754142334,0.13723292753600647,-0.10755935208660483,-0.10292743363261636,-0.2194714179642525,0.39815616318901303,-0.11316924822745511,-0.4047416494374628,0.08019709652366247],[0.29757903847951406,-0.34286455323674336,-0.20363296654614738,-0.23888786560484754,-0.4117875244765722,0.10392801309125943,0.2230332500406479,-0.1609038634016865,-0.1698338365029599,-0.0705392559841439,-0.10885338501588182,-0.21785209242476045,0.045627405334524807,-0.4556959625548217,-0.010005186639550412,0.2795583391613504,0.09974480450742651,0.30996943629484,0.16038003190845018,-0.39076739975819286,0.30188807843223875,0.08361193068557493,-0.18619499144837037,0.456520919761649,0.2771189462249438,-0.12436698130367174,0.33211538002211194,0.14821145244261746,0.2446226221691159,0.05698265539330338,0.21452285251509118,-0.3430597330912183,0.45801305993947194,-0.03981548753890607,0.4977235831142194,0.40412542858014733,-0.28816056494205466,-0.09341382533320564,0.06486486630302357,-0.15636702545770198,0.49928520235924834,-0.3379383546927337,-0.21959775456986563,0.04373509605908388,-0.38203441630195045,0.07437075625227196,-0.259571277856964,0.0015215397903989292,-0.23610751271876262,0.1776063652138854,0.3118458356917714,0.22177731485783359,-0.07190886437084432,0.362636705933681,0.048786664513892686,0.17144123801069022,0.21601547980036617,0.3071769807871859,0.020988719790774213,-0.4188887853735347,0.04682489935255196,0.23510087733091034,-0.433645304740775,0.206664184191505,-0.4422527828720241,-0.26817098354947955,-0.01127274992957683,-0.41309052229719256,0.43816856640296686,-0.21889186983374587,0.2619440081892117,-0.4627030935580393,0.3487536963033788,-0.09177867854104194,0.37252694402348885,-0.39494866240610493,-0.4571850721234486,0.31564604689479625,-0.4640993740962982,0.4777078802335003,0.30031167442989726,-0.3205965311745945,0.15482137010382946,0.3848734230731956,0.30927683992343435,-0.1621809872965696],[0.0537399552547666,-0.13785920967246323,0.18513015233270136,-0.050859307413357424,0.21910855741210844,-0.1435650755039648,-0.09474714352060687,-0.17956178535663625,0.003181849103708556,0.04367042353736661,0.05436184175523695,0.017432749673407577,-0.4923483412878632,0.4024529070098488,0.4256359876782725,0.05338337432817297,-0.34650689314265015,-0.45834321210438167,-0.2967892141741182,0.4248829175600215,0.2646896611864782,0.015064582537803406,-0.33642810289953684,-0.48660710337787205,0.3460432026043043,-0.1271457205809856,-0.4234575149343103,0.40357311907691473,-0.3809352671732119,-0.0024277465462910763,0.26097243750553,0.4829384499165331,0.2949797188506401,0.3513317081085511,-0.4440973236828838,0.28210198905857364,0.010172200033201073,0.1213274641552835,-0.19510888612421606,0.3908401165264139,-0.17307047945520504,-0.10764033089925362,0.3193509902047159,0.4424414793294993,0.211139721966496,0.3979107514565219,-0.313833306206149,0.09727879190697208,-0.06136774085013841,0.10542143568651097,0.21551591017918814,-0.32373128015685193,-0.04685852903716081,-0.12323720760124413,-0.2132590048125097,-0.40413846836211564,0.30141209989207396,0.2115036589476158,-0.1567229275087556,0.038429172060699957,0.4047540559181877,0.12842355646799075,0.3120573173338719,0.35539653232544666,0.09139412038257877,-0.4301768971186253,-0.2215185878969379,-0.45481252799033833,0.010259945798089087,0.3235357600070078,0.33494570161876025,-0.22596617464975088,0.274371683523258,-0.1508543374893866,0.13909903742160523,0.3149219320539224,0.4408052270375076,0.06776852200466177,-0.13259883243215098,0.4684278704214855,0.2242306741001412,0.12885382679431878,-0.06977456428087558,-0.0010806553155703336,-0.3376827193769404,0.4028177798211804],[-0.4733386583863112,0.37057843333938434,-0.19616250942896063,0.46491907970519797,0.3603361379942759,-0.4000739500884758,0.3740891604682247,-0.3663603900989423,0.11198972097300453,-0.14499411722719646,0.28729634617481425,-0.29406471046916804,-0.42980006895088885,0.026111499786164782,0.3219366388535235,-0.10792727854029516,-0.3414294792887357,0.36891735750870003,-0.24751735579095657,-0.4056306959068271,0.46585720002079434,-0.021899099970723923,0.23983440996958716,-0.4029937243539723,-0.21507809483715734,0.288019588803228,-0.1772416682192165,0.43818509251571247,-0.402930682220057,0.016732722712191728,0.42393726087291717,0.2212495440362594,0.40023324630983415,-0.029364611915277394,-0.11322426389312934,-0.11200220720589937,0.27264552287342025,-0.09080230768083186,0.19289302126722552,0.025259283289731038,0.08803308362799034,0.23277920465871216,0.17527607824110447,-0.39508624006961657,0.35405356750192185,-0.39878467029241327,-0.26164681662346,-0.33211869743099354,-0.26740607280826145,-0.2831514375004611,0.3237886840170152,-0.14578730178484234,0.4187200929224474,0.4129043508230126,0.1195873998259368,-0.1457373406513881,0.20448009425901192,-0.12341237730566057,0.3001374968654934,0.3100286057171606,0.23442743844909453,0.3060031760480826,0.4061084287989204,0.4310901332003364,0.17164478818307893,-0.44902131030325376,-0.1743391398580818,-0.3938146760080502,-0.2637871958106388,0.32009676508600426,0.22221344381466723,-0.4106879982247976,0.35248284084009895,0.34971831773799233,-0.33094895303780847,0.41834327950815975,-0.052823995697183435,-0.4744939145882967,0.19734815073428613,0.08449868661369753,-0.22275466512982922,0.32293430493936004,0.4417194977317368,0.11261326195705557,-0.4653976953859663,0.0904963472350121],[0.0761999646154361,-0.36500102737060136,-0.12577800207061907,-0.3622006998489209,-0.22640568957790852,0.2457940420107062,-0.05719361979903337,0.31046045456997107,0.49242629414368433,-0.09195222132048686,0.4470983228580969,0.23469794336096872,-0.0017438252528472198,0.4523894725288212,0.2941037452296348,-0.30326635110755795,-0.34007553806857327,-0.24601803299936809,-0.14010711872008186,-0.31439662354336473,-0.2736813082033227,-0.4964380720663595,0.4993158173161668,0.4726959663434579,0.48554931586333416,-0.40127979382387924,-0.004118267617536309,-0.27268060301599106,-0.06404017092736314,-0.4268222667965018,0.26921499103880797,0.07481832849831638,-0.1428150817818834,0.1546632636547367,-0.19308428523062104,0.19224472498538325,0.4595103705296478,-0.0038986000484518835,-0.03168410966847368,-0.4936911346928997,0.11107633049266274,-0.1398290414462674,-0.4804628717460334,0.30931542459173955,-0.00499423861221493,0.05389440299666104,-0.4975809969815357,-0.3589845384100141,-0.06767193307713504,-0.29222790138802723,-0.18569795203076123,-0.402218295416637,0.021607602199771425,-0.42692482666805376,-0.31868694651461016,-0.1747588519552371,0.19247527188008928,0.37126347556413,-0.45528572152410063,-0.17352431651408506,0.2478010503798217,0.371096256964746,-0.25195758639506205,0.3751279481703179,0.4780337694545055,-0.20814566034096527,-0.187822474480822,-0.23877415577293204,0.4712741825104565,-0.16480484092863446,0.016145438525221434,-0.1827337434510793,0.31393556939545986,-0.36648755005501044,0.46337188997357204,-0.3269251094192611,-0.020613895374213653,0.16927475588515772,-0.19372945847133727,-0.029814766768804013,0.3357557020486239,0.267668113594537,0.32646079223984226,-0.17004290449752468,-0.13087081421525193,0.09396993532225872],[0.12357578281191461,0.2143809245881696,-0.08536311549628517,0.19743248225484888,-0.24746517348591124,0.44449119048135755,-0.0845073880852738,0.03505643071998077,-0.2326815488824019,-0.4514617117217322,-0.011181744329030074,0.08148590029803637,0.27869867554499494,-0.1994545551944834,-0.13286710399063761,0.08535820321835186,-0.18595917714934485,0.27960316959198594,0.10567416841011013,-0.23220660002800653,0.47920730962758473,-0.4687691874967236,0.2982576252395721,0.27530962773245393,-0.3342416533579523,0.4443608315051987,-0.0718302541834479,-0.002697331060503294,0.3210577122082884,0.2709786542959899,0.39562913159343627,-0.06267133331730579,0.10455665405943726,0.31017679513118424,-0.2903610262782331,-0.31221846694789024,-0.40955744298466046,0.15435906878676786,0.3095938227116023,0.19915741309053203,0.045003264447966984,-0.44744316122850414,0.49079188005035224,-0.042049474284225785,0.20647177361549385,-0.11570369703173033,-0.05195629692832893,-0.1086739543542361,-0.07421933972773886,-0.0428181697006339,0.022856982872647924,0.3020673855289605,0.4885686274767672,0.3423373582301402,0.3422162617724588,0.40389673381508273,-0.0680531382869145,-0.25592584088061165,-0.32923474767834027,-0.4248806707782593,-0.3060539050240062,-0.0363699541175756,-0.03676092919290497,0.2776434089381429,0.48922945418346675,-0.13844852030993193,-0.19971817963281668,-0.30122052780991826,0.39157043510238054,0.3492667499365759,-0.38167484168286125,-0.43517608297089494,-0.27824027349106484,-0.15237538519062832,0.4029915271537001,0.24828377264494184,0.48901744772321776,-0.16134981158670714,-0.19447452163507195,0.24470073000021475,-0.1853469253976352,0.10649520398999601,-0.0369549182126766,0.3303844767896956,-0.021371791595787504,0.014537468171702983],[-0.3440550037982337,0.22896635104577656,0.47284162057292023,-0.30218989841331956,-0.18042863251518015,0.4125366273099895,-0.28062946293959423,0.3634184339564849,-0.1576719376313539,-0.25777023773356733,-0.08243431361267761,-0.013671986855265827,-0.4713373086782747,0.013473620040129197,-0.17918808990404556,-0.4361150580664248,0.08291995968556254,0.1127203408447498,0.11193016888048823,-0.25034482653357315,-0.02116097741735612,0.41532822952907245,0.44561081091621624,0.125646946652341,0.11951039332366586,0.2583650330584808,0.15693213485879443,-0.408293886342041,0.26389738665139784,-0.19254472536535727,0.096932161415196,0.351851890143835,0.298565457839017,0.4033954583116619,0.049365779950565125,-0.24045431264569006,-0.43294708707046925,-0.47788776688967227,-0.29280662516362743,-0.1526363975320223,0.13435420153948485,-0.1893588726493156,0.24301113700226018,-0.2887312464380333,-0.4397224974448404,0.27215389435689263,0.0945473208104779,0.045656762835029174,0.4829760463920638,-0.43533520135500825,-0.2954872403686486,0.032573753372058034,0.07274260696009605,-0.4491023948276688,-0.3964918307264581,0.47698354039612945,0.20619535520550725,-0.3091035970313024,0.4053544612605561,-0.45031372748990695,0.03227212029013349,-0.39568494388864694,-0.0038732159516166043,-0.249531662831603,0.4539894713507804,0.14592180603193738,0.4413367003228672,-0.26371094205717405,-0.0662880115148683,-0.3642930974823899,-0.08987856837281272,0.47278697651788393,-0.055283857225384425,0.4640826231314109,0.22096246099405115,-0.23788548654677955,0.33812229217463596,0.15301686074385534,0.45037057279589343,-0.42391327094754483,-0.1281928750447464,0.09554315450325224,0.41413816798798553,-0.21914379054073696,0.15669862225249742,-0.38105923849004797],[-0.2698265495160258,-0.222196830829399,0.3158936882911376,-0.279018875265736,-0.3974041799523631,0.3050553649323714,-0.27667145746086297,-0.18601232969949566,0.42868518932626354,0.14503042548160539,0.2912705936036455,0.0780579596385218,-0.17655749931255893,-0.23438139427685134,-0.0903104811893366,-0.42735136129158635,-0.31906757420578413,-0.013899248712146983,-0.19439528426995634,0.08482517219667984,0.4472436221832373,-0.39637640955041764,-0.21320521339367882,-0.19717019825463944,-0.13318432970680139,-0.4579701483151726,-0.43820548619070243,0.29522314975852815,0.08204608371726274,0.4920682047584076,-0.4131070067989018,-0.05129422009371265,0.1155048149639687,0.2004842585480331,0.18088658039098882,-0.02817164468741451,0.44474760281681003,-0.4647799731265553,-0.030371682877036954,0.30714981043623923,-0.4083660933714517,0.20492683978510562,0.07495571383913069,0.3110052871773452,0.39121861706089145,-0.4567780186915329,-0.15363313665133715,-0.14210338125929844,-0.12029839393076758,0.08159687568337304,0.34885442578616865,-0.39438038030011113,-0.45341734988493654,-0.2703891833968157,0.2665960599092916,-0.4824052550395639,0.03308326681642826,0.2569807216759087,0.35973855907695507,0.3804683999299088,0.22706182964139898,0.429404197300026,0.1203028316878173,-0.022095939019528776,0.10406122599741208,-0.4115704574895983,-0.186725243405369,-0.21441586736321372,-0.40520648180101426,-0.3145869465291079,-0.3397628048166069,-0.46220508277723504,0.22127938198273533,-0.21941966169043714,-0.4745634169319243,-0.21743179604532725,0.23702436470232724,-0.1995647761192847,0.09796725119031569,-0.40979460790032163,-0.4689716987949215,-0.0897638112861544,0.2287950924069182,-0.09088924830529699,-0.38891200167665285,0.20298665611738975],[-0.22236805650502545,-0.3267874008099626,-0.4312327507377518,-0.4676374758089328,0.05221032228880873,-0.3431474854343254,0.04657287357004869,0.22422649034755593,-0.31870205948173513,0.24587427914575943,-0.12271096149817051,0.08985520914268108,-0.44717000716731825,-0.2522545073291612,0.24608601904095184,-0.3662676429169788,0.269826583323715,-0.4011027055075004,-0.06206545831539423,-0.4002631936929736,0.42930145149845333,-0.15593196652147379,0.4760194891610041,0.031781746230727936,-0.08684254191552332,-0.439711095844998,-0.26873749684606596,-0.16156260431482472,0.29510331241023857,0.47725137679992713,-0.11127470625017055,0.44579621739530384,0.4139147524962664,-0.09385289940551522,0.4935812363378722,0.49881617592867256,0.1409030781126911,0.23067313141071788,-0.3324945815365048,-0.27139559443534556,0.3782424550405056,-0.3632534058060982,0.48574847231059226,0.04157982653401515,0.36484664806516665,0.46157450078301776,-0.06417702826901672,-0.39381995174475115,0.4377750259713262,-0.47192375650933027,-0.1593546105536663,0.2137543579720681,0.4996864712698923,0.09725718504978209,-0.37785920444493637,0.472511412930653,-0.4233506469384697,-0.3810155064590378,-0.19426865033724816,0.4568662269315864,0.015654120678969874,0.2907163668861845,-0.2782062379367294,0.279258373121702,0.06746470293755447,-0.4559109841040676,-0.05291472557063426,-0.32251075736063584,-0.17201615438927875,-0.02913406060190693,-0.3526990483823509,0.11785317678574059,-0.22990366052250066,-0.12739338671493683,0.13134028289551125,0.10281349592159783,0.3879932896021374,-0.42748762374838967,-0.3914758644653531,0.34170149060944943,-0.2027301744239225,-0.13674006733570288,0.3519175923687262,0.1938924271870497,0.48662746054135875,0.48123323077043056],[0.2140786325639501,0.32613969673746046,-0.19919856611861975,0.295417042273563,-0.28403421059208556,-0.16077556364004575,0.14937247578307833,-0.021683253808629344,-0.26459713467990853,0.2138047946632814,0.3824115561474486,0.28662008108522474,0.15841222427085377,0.3013251881961566,0.251445042430924,-0.27908116052369225,-0.27510720242566467,0.24307316043621385,0.3830170061941234,0.25665949077348627,-0.30046774299921375,-0.3610531106494467,-0.2678357970597097,0.04259347148430559,-0.07049223513481462,-0.49277559583792296,0.054408621830423276,0.44834970331015056,0.3124429365283017,-0.42239928701893126,-0.4625886714225794,-0.390647147833325,-0.3087465602492362,0.2419865854020018,0.3672203811078909,-0.3348370194187177,-0.28307289815642855,0.05103887822523512,-0.33091510166120974,0.2164137245567509,0.2759487794375334,-0.010881009805796982,-0.04090380760900425,0.13587715247030163,-0.33400550593427314,-0.11364767063338888,-0.029544021188636194,-0.23921408455319104,-0.1783172656384835,0.23368881125938323,0.47696081948019386,-0.3336060427473616,-0.45841419859078636,0.3553403059602688,-0.4736690499716407,-0.32514062582783654,-0.15163281452313015,0.3626978829606108,0.31730090010905687,0.48888396171547377,0.3258259949059158,-0.4351916477683875,-0.19307234642858506,0.3561460438570613,-0.4802075821808075,0.04271574552309898,0.01836263080977918,0.46841439976925037,0.2642334356764272,-0.09154941236881531,-0.06562905081975656,0.37833279399299446,0.09959112871184805,0.36417542105273026,-0.19182788627862057,-0.4227837726605588,-0.21270952169008595,0.05297285391494222,-0.2992855850857846,-0.4811984722639513,0.29251747934835537,0.3499878107802997,0.062284677564584334,-0.20325355826738423,-0.49321758377560654,0.18111276179833868],[0.21639405046708848,-0.11222703153460956,0.4124473594824809,-0.32386850904890363,-0.32483045166268076,-0.14229773126089995,0.3533106649302269,0.4642129321787296,0.31802029399622656,-0.30576990257152026,-0.43149400602052235,-0.29812638437888117,-0.40086403411204063,0.4781430645005905,0.171386410670464,-0.012996209749438381,0.11441484536687896,0.4337777544656922,0.31072932173042533,0.15727850261386722,0.05470703996387727,0.009876483250955359,0.33851117915437934,-0.402747978756651,0.299798181489769,-0.4664056040083211,0.4266652980348572,0.08566005048326575,0.1663476281569567,-0.3467349365676121,0.22465048480261263,0.40293102375515566,0.1130343088066258,-0.2603675001255944,-0.1696786204097257,-0.11136568313250528,0.027452536794187687,-0.3493905370798208,-0.44149329025354833,-0.11043040392854209,0.07183892917455226,-0.2187763364567361,-0.2651355897510399,-0.4285716311736141,0.44850105152353215,0.11826445860537238,0.016997648671149168,-0.11956495011892765,-0.1391429647873591,0.09824480301080962,-0.4495207066594362,-0.4638982570022606,-0.10771552137721485,0.42764438065282007,-0.3956532579140577,-0.1877928865611037,0.0025166999575972904,-0.33399835929944666,0.19879258676447964,-0.4796632322737525,0.3501123685054929,0.2952737763089428,-0.36280846903178443,0.04879869192727471,0.18956466710984998,0.202985643896197,-0.21473289882331192,-0.4705459820548409,0.16290431851849185,-0.007960346798256412,0.40211628830924995,0.2059800482314157,0.4081905886732937,0.2966608177715785,-0.1790256994232452,-0.14069097169550093,0.04107301905454863,0.3318019389229836,-0.19798466184274488,-0.29053772928500643,0.2306457025346592,0.23243659677310757,0.4351500119249523,-0.44227327840950914,-0.21289473128868952,0.34951775432643484],[-0.44230694506196677,0.059096509254976004,-0.09373749378698737,-0.4390171714679807,0.26994033995274447,-0.07787044872987259,0.4747467938834008,-0.17096369130453226,-0.21889295380160967,-0.4781547887997384,0.12978149499686098,-0.3109564812386769,-0.0012562964214672956,-0.11898414754155817,0.08869747185899968,0.09072036439117737,-0.01333936178748829,0.22618166714981058,-0.38410872516979244,0.02890515995142129,-0.3404447730097675,0.3569445417034529,-0.12127702092774262,-0.30094925614181944,-0.14304913787738527,-0.11942623706126954,-0.14111160616348695,0.49167627506637,0.24471996060012002,-0.041317779697916834,-0.0679108269897617,3.6977444522168224E-4,0.32937827612093307,-0.4112911934784581,-0.2936370430272506,0.3595340959123058,0.23850085945971722,-0.3998305451586259,-0.2817743309900005,-0.3490796400154411,-0.17997508179810762,0.4841150206672826,-0.37418366955040194,-0.17790514908218247,0.04386824020931246,-0.106038120103636,-0.390475683052529,-0.454663492467959,-0.3487935059764672,0.15683647329812767,-0.2068825153022824,-0.2879361423307305,0.48991633867608075,0.41680278482024513,-0.36782040215271194,-0.19425796453524946,-8.947640319287853E-4,0.09481729715650378,0.3817035300074948,0.22532161926937255,-0.13868616924356736,0.194983224438935,-0.049023615355078154,-0.25838688002522925,-0.07211061852153566,-0.3873481560274934,-0.31856841778193223,-0.3393978726874096,0.14119416966455445,0.00714601011187499,-0.15806799482612888,-0.05943840757953456,0.3267259675311879,-0.009643427337466148,-0.07401256937334899,0.46391993562412603,0.40889211789502866,0.35218985193919117,0.15669837198422798,-0.09980551188836329,-0.18390725223893933,-0.20517963111499182,-0.0422422195844987,0.11290167856485567,-0.41606727813772926,0.17992974780670778],[-0.4673692480130699,-0.13879303984437308,-0.06020419756154172,-0.3934107480537059,0.10907199625296982,-0.3738210368725988,-0.04232097439171578,-0.2678299534888593,-0.14757085830430972,-0.2481360230156573,0.20909881917810058,-0.3753582583004099,-0.07128017120666175,-0.2670016988248711,0.20404470448624223,0.0918463179098653,-0.29274117148850554,0.4040276862212686,-0.18462934816734056,-0.12818867428236158,-0.36734880770708733,-0.011795279523375335,-0.18932216674498437,0.28789234557887755,-0.1327440228382104,0.45088627329038145,0.07765697898817825,-0.026487991190610183,0.40776433350604346,0.36775505616355664,0.12202220046015033,0.05348844197856595,0.013324948399123127,-0.43345924215822296,-0.058417308133707824,-0.26757647327750245,-0.052311308953455815,0.12991740480228464,0.4356621972719006,-0.41465263564198784,0.2341333008300639,-0.042393899711694716,0.09599092990778801,-0.028207980162735735,-0.150531445589823,-0.022687309446935977,-0.15664224028895402,-0.09830585684385307,0.042210594383299216,0.2669824729321567,-0.476274539102282,0.3700029349584292,-0.24994612600225619,-0.1950450626340895,-0.24182460011631957,-0.35340410003519906,-0.08694216709317104,0.29995343305414657,-0.44703799646835873,0.2590820180656441,0.3315045474012869,-0.4305537362577996,0.31912176790279667,0.4382980636695276,-0.3988269837973606,0.23276681519173603,-0.2745045797487956,-0.39021925855406525,-0.4261858913901566,0.06448279913030042,0.11468586207424036,0.1092232629989115,-0.2631002045490294,0.2138548937140221,0.04838865392011904,-0.32409739823630146,-0.11574045972196756,-0.36217185801867025,-0.08330385723965383,0.4352888794151468,0.4580048289924298,-0.48215010630994315,0.44538959856126714,0.020526252511926413,-0.01781687173666535,0.13491007424561063],[0.36589892826914583,0.2021999334573703,0.07989057164974289,-0.33744874040230455,0.47452244082766504,-0.10321810005038023,-0.3318874653170394,-0.3958027657077049,-0.1993358431808896,-0.2936269424974649,0.0583495639439765,0.149000692814109,-0.3717404791330132,0.20583721654173182,-0.14387414938822296,-0.450488201691147,-0.32977511452326524,0.03814832491285691,-0.25123363420884703,-0.2651785208061297,-0.21732002641910486,-0.49525107466487617,0.4983671713728349,-0.23556564192715346,0.22385666227099066,-0.2550552742124771,-0.2843263593816525,0.4009781251263288,-0.38797851048847654,-0.2131636534602327,0.28061943319022653,0.03395748473693161,0.4174032094371828,-0.2779840822733366,-0.4034316517793257,0.42211272652063603,0.03503131479532573,0.00723326091435994,0.21784077686213377,0.23854393555151243,0.22855444223552313,0.42846207907817846,-0.22610542535000766,0.20061420086884585,0.009522970977670964,-0.4237259093470578,-0.4714296795929729,-0.35425402918575033,-0.17771686536290932,-0.22384535046238685,0.3590989649073203,-0.22542324531861313,0.24154455335807545,0.29337096843851984,0.4171098522100358,0.4245419540376839,0.25784680021487294,0.2892296738129644,0.2426653239826908,0.15980363448894475,-0.3744346505702282,0.44403765810737617,-0.3576121443863285,-0.3324535581461454,-0.3212396529760827,0.38180642146590427,0.2140343892673391,-0.06398736943739958,0.4820865839294447,0.03271675602904911,0.0024115941689630827,0.4562501527140138,0.17714654419486586,-0.1484127703906991,0.40531503440815175,-0.26260050669503066,-0.09091716910484604,0.37406633781133125,0.11321404847079664,-0.2455541802633623,-0.226129984512905,-0.0630049893954765,-0.4373065931818305,-0.4422845293061328,-0.18631975057443506,-0.48463764722460156],[0.11120173926732124,0.1649964881251912,0.20586111952289754,-0.46449542739591165,-0.1005541061653803,0.030015253391119323,0.44047774395425066,0.21267298296449033,0.15780947525857403,-0.16489777474405687,0.46203613975408697,0.4308241280279085,-0.4655375281076599,0.09123164765674563,0.4629176602176025,0.43346121697718254,-0.12463124682181748,0.04522173680206276,0.25921989801330114,-0.37341707824813597,-0.22981359924070877,-0.3082669235833756,-0.0458881281390463,-0.39172815206190514,0.09309552819833034,0.2668048793460379,-0.10052303116777483,0.13418179368121297,-0.2861230710392705,0.46002020627212514,-0.19647025779841765,0.10415936196391073,-0.4678958655940906,-0.27600744460393634,0.2002579436551385,-0.18753775759088953,-0.003899333035065733,0.4827182105817469,0.3959542258751322,-0.3574874237397333,0.3083529765324967,-0.25555987718052575,0.43876682527245703,0.10685091639146393,-0.40964138536797456,-0.3899796072914541,-0.3808879043047838,-0.3660673503304228,0.38242903345639867,0.43442055873970575,-0.4980441250571944,-0.21436489321102703,-0.012245776172715384,-0.053260104369774575,-0.4836150009630027,-0.34717948893013106,0.3350765934937271,0.4633637259767013,-0.31644588081183733,0.02102616095700105,0.23060968386618996,0.4391255721829612,0.1510070534030289,-0.47566996212795065,0.09737713533687797,-0.0070121445826240025,-0.1804640793130019,0.4126665024928383,-0.4410641818568394,-0.2824017868553873,0.49815575253737576,-0.2536568135221282,-0.485513785758367,0.03617954024198755,-0.2965644256192145,-0.1987630392458376,-0.3263374364556172,-0.39443659140593146,0.4313420194061667,0.21912336969312185,-0.1281662318676451,-0.21922135403432474,-0.027085555022478558,-0.030179777581871625,-0.12946431823296656,-0.045542559081946155],[0.11950588683795715,-0.4946967840969373,-0.23730599129969954,-0.33657585835163206,-0.09101320676785485,-0.4193229590603301,-0.4514136313285293,-0.2848178205716577,0.40122405192398647,0.09286320617033605,-0.07396875489070187,0.22861723388058386,-0.16068949828631163,-0.05490876745472195,-0.15292009002239482,0.40608551652173275,-0.04756465461254922,0.3837571676001683,-0.06647218716560654,0.05815806966864234,0.08694903370356333,0.47393978914703827,0.41484938633034996,0.3876433824009585,0.31409072710032826,0.38084102227552985,-0.14529955220287005,0.30611217375997324,-0.34398924602156844,-0.09335563221881293,-0.4340788502599312,-0.3960002483709819,0.09613358818655449,0.2957610010750923,0.2790110920585519,-0.3755369719069238,0.09557210158425467,-0.3338397440120273,0.32533784345492034,-0.2984793140143226,-0.07578285774656057,-0.4495424049832337,0.3238788065097252,-0.4853932422528614,0.23329057199161596,-0.062340591986791316,0.11908553080882733,-0.31548106134265985,-0.054435306359295166,-0.10505852420859663,-0.4925013051355239,0.38984551734037987,-0.27988612792095635,0.31856324146636905,0.11203102547693444,-0.481694962430833,-0.03962069554128911,-0.3860023493211362,-0.3846257612773403,-0.11596439069264453,-0.42250844448828795,0.13758219909754965,0.4477757875166052,0.33972149955051023,0.4952089835813799,0.04547403135697281,-0.06053074651753387,0.19154659272816277,0.18849549451167236,-0.2095824358375331,-0.10566748512127355,0.18531598138383443,0.3846737181997091,-0.11718917664340622,-0.48111432139444166,0.47368776431706905,0.4242550112992498,-0.3102177714359866,-0.35046924248553135,0.39731001197761096,-0.32203940223875127,-0.015533225887686686,0.26097359827806554,-0.38324200542797826,-0.15288659481863187,-0.322603300548332],[0.310057810422138,0.11751931287903239,-0.06350683536307455,-0.3371012465828087,0.07177954950903354,-0.1231242895255048,0.18191192953443924,-0.004383798448330478,0.25804102649475624,-0.47061798390909304,0.2391814723085839,-0.3242492585160287,0.3747395211599367,0.1967444042441039,0.496807276654742,0.16634563029583016,-0.030921948617838035,-0.24174895282109887,0.4616587991541111,0.3919085270578553,-0.3534772468990831,0.2295109289240157,-0.21497083138368678,0.3748981608678351,-0.004379154443210909,-0.4098930397182523,-0.3540884194200943,-0.14492351864412345,-0.15106726846322627,0.3548719975544975,-0.11101583573666118,0.20645399256342034,-0.37037987754321566,0.41884739615304034,-0.47329147007070493,-0.2824676398993098,-0.11422835383943619,0.22258558791708094,-0.04188824851415496,-0.16722440762317914,0.49833628396245855,0.08230945729781325,-0.4687646008420444,0.26671681979877937,0.4635741463842872,-0.39145665239048344,-0.11810075531238906,-0.0031647160894694437,-0.40277707671381224,0.49718123838774986,-0.18165844912938456,0.017313444068702832,-0.01488251068103108,-0.3814396338421232,0.38946157894684474,0.3930119404015374,-0.4862103454654064,0.2529587985676415,0.17380453193977252,-0.40852413068816174,0.35461329835541966,-0.4749616134257669,-0.2429076207824874,0.29051259070817237,-0.15365011546229723,-0.42489526811944844,-0.1719808593243265,-0.14014188899495383,-0.17651192282795014,-0.22834119928547203,0.3151922992143146,0.49767537667576955,0.07156027875333393,0.31756473418301545,-0.48748326181596746,-0.43389567026957565,0.25565813760527734,-0.0687382085822913,0.19598123929719624,0.014810363629272238,0.3646578870187003,-0.10520180388213773,0.321721809970795,-0.09254566061274672,0.4412055423165172,-0.3479323843965445],[0.013400415646647956,-0.0267662740104313,0.1263013158790266,0.31347942168166376,0.1963511484508147,-0.20587895545276325,0.3373610112639386,-0.12260348203055738,0.41661056967071475,-0.29184745263082856,0.21992214423316858,-0.2859747886182463,0.09486264006800915,-0.23990373413966704,0.36570045996820244,-0.12595657407234317,-0.2915072406784548,0.06305561558299178,0.17349290197080558,0.08210567029014426,0.1693596162797275,-0.2519592395073328,0.14446085781004325,-0.14553637515193285,-0.029442314013721438,0.27326692293860155,-0.15038236302215668,0.04029398743986301,-0.48764320901199987,0.2409152168787897,0.28488227551458534,0.22792575051368713,0.38567006568532125,0.02631806435502082,0.33785171055956276,-0.11998843741670251,0.2908145557836863,0.4630081127261546,0.13048174300503224,-0.23421166489177336,-0.3000058154926739,-0.4532043300202869,0.07315660078898989,0.24392503887135797,0.33384736501354983,-0.3769832091290105,-0.4318341759664791,0.21605610207934012,0.015566856441285526,-0.19667980848729916,0.43439649539105707,0.1189510437783371,0.49051281067292296,0.4218380368042053,0.2900875511235229,0.15237234305622072,0.3549040948984038,0.18531226086386843,0.32678234191132016,0.05002508507256964,0.32408748421243705,0.29772432620199796,0.13515433665893972,0.09260347530699542,-0.31095230626758386,0.24720306701223438,-0.49782988557194063,-0.2652089774440395,-0.04076412491580517,0.1314621529396639,0.3890930028431745,0.17217235878383153,0.37045803650160414,0.3677445301090059,-0.3788807448708261,0.40936703338126057,0.14847863408385897,0.3842284792634102,0.17197831539533015,-0.09270392363956004,0.16215939683639746,0.4220760986728074,0.31061761042844027,-0.3146553965711305,-0.12563361574119336,-0.10921833355538313],[0.2921308880353327,-0.16671499782095767,0.30454375808316914,-0.1857960138282002,-0.27862082988016545,-0.25182345549157026,0.05376528077895604,-0.21935679673718556,0.19529119280241747,0.053059122481809884,0.3112398248700483,0.46754936736727704,0.3386207131776502,0.07711056241641068,0.16066076331073464,0.2499263298715133,-0.11202443438947962,-0.018962229257832197,0.4354529641927123,-0.37877850772551236,0.05022385496562631,0.0968244724724967,-0.1661144243690762,0.15646791164605178,-0.036079303784148475,-0.18244074443896496,-0.0018172438834359594,-0.47032759052137707,-0.2738115420982127,0.42091917778404275,-0.2138217498483077,-0.33908024257485436,0.11252261866006275,-0.46101358351647936,0.019724226969383585,0.41338904059488113,-0.1867161220095327,-0.40257405355433284,-0.41902142832219336,0.38645578889937104,-0.26182319687700384,0.43865472776218084,-0.15414105406804146,0.25827921565416245,-0.3011958342695882,-0.483515874725011,0.09336600200049361,-0.18024906481670133,-0.4305749998300241,-0.49618149906538245,-0.2898576515265734,0.3114078507875606,-0.15266643284944004,-0.1096546877984842,-0.27845251720860376,-0.07411144579471907,0.38681587791188554,0.16375232033158305,0.4236935941987049,0.3707393639011437,-0.03557145966005126,0.4658607582090405,-0.33469930474135423,0.19985205378593573,0.24838505090892804,0.19416318042698766,-0.36610614683183884,0.21654277048451076,-0.30887759774465695,-0.12039240373453874,-0.16222072401512322,-0.37274261262054265,-0.1583390025560708,-0.18692987613015488,0.3433999466550921,-0.21788440750247917,-0.4168408286496791,0.31581070539328326,0.2270860450574672,0.2769824922295694,-0.15889678349528003,0.2533072886938098,-0.36912127768889846,-0.08851716378583441,0.3788624898414197,0.37721612768968327],[-0.22597949995832978,0.4983499351323193,0.399878592110236,0.34680678356472894,-0.23513075383286353,-0.1982725821628596,-0.19045383119666892,-0.17092751862905298,0.08240695228188577,-0.05448092057331366,0.1548826068925161,-0.09418235026084731,0.1521784373094348,0.47760807669525074,0.45637239637094196,0.12637642921119052,-0.4715906122816158,-0.09825613295814883,0.3739112459093633,-0.06378300668190162,-0.18778318212379175,-0.10387879300872971,0.4075640702838239,-0.11546139180272641,-0.4147604446353992,-0.3738472845133871,0.12389007613766101,-0.03193032687111863,0.3186802500834738,-0.4713372999335472,-0.28012280180657956,-0.29637371906450816,0.42966416446663735,-0.30429350305006864,-0.41093314328783137,0.038593022700080915,0.3999844446845684,-0.48155368989429914,-0.061759971865791075,0.006338779355828605,0.14671777544647502,-0.43500890805249937,-0.08192654244536934,0.11268211994452304,-0.3601422972101751,-0.23916564042188826,0.1774647557215414,-0.20012779758496946,0.09902758602550299,-0.1834993737556383,0.22876400025157106,-0.023847119772525627,-0.03050091476712191,-0.4957624120904547,-0.4800617157870757,-0.4781705840074558,0.27715600472586843,-0.1759322878748918,-0.35026505332846025,-0.1131418041377169,-0.10729262544746931,0.31923978831858146,-0.2668016913214636,0.3803319433404493,-0.30263210885091185,-0.19790317490656673,-0.4725664500087138,-0.48116568424572415,-0.3646122667959949,-0.4663959115334222,-0.43869922426535,-0.1515106005993453,0.1632280348544627,0.4632572339301204,0.17776101201981387,-0.015367155302658975,-0.339158077742589,0.4808166465130619,0.0938852359549146,0.2233834671324234,-0.04256427011501018,-0.2427083177535484,-0.1889235141816903,-0.029004660022834416,0.24224851481067544,0.15982411903827132],[-0.033155926642055245,0.4097220319105913,0.2803022477313174,0.41359693398832986,-0.4904917846491619,0.273026324369815,0.03373931855205614,0.15362155904316577,0.39850210673442577,0.33832007725677515,-0.4987223589016623,0.260232641798412,0.3854780480213411,0.262020955582143,-0.16852184887316057,-0.09565371162456027,0.3152125844650845,-0.32043657264949055,-0.4600668344472951,-0.45798543126483837,0.3003455447766096,0.0721040280394889,-0.03385158628865814,-0.30746539604246326,0.0702760005375137,-0.2379882764842275,-0.05719449445328606,-0.2896512659851732,-0.2279219199070428,-0.45916401172639487,0.018255554294755005,-0.08180281745984253,-0.48991207522345015,-0.14370318301261065,0.4725090546439217,0.4074623121095765,-0.049147119145215745,0.18894257276104665,-0.2023493052914045,-0.46863027701770055,0.3914220440281947,0.2344726894812873,0.27552244389253044,-0.38231212178045804,-0.20850234278691993,-0.22567567684032808,-0.2213182710288596,-0.29020512295416656,0.4037546743670053,-0.3350265510484559,-0.054944126354283584,0.20845712002464045,-0.1983243075243344,0.2055020289999414,0.4323782042395108,0.13139170223185137,0.3005371720349429,0.253335400299493,0.04540489888254151,0.3336602138531566,-0.005278051740321477,-0.15034556526495024,0.14707594175949512,0.43916906762640096,-0.10667780229220036,-0.2111604776490109,-0.08580238179059796,0.4220272310421166,-0.0739638809866735,-0.47959541841845565,-0.3211120003215784,-0.25376080587122407,-0.08734971585106499,0.007230641439744279,-0.19105906105260517,-0.27681223482414785,-0.058060696103880205,-0.3194890950123719,0.32342807667219975,0.2785872906434027,-0.01039707738323703,0.42966950625296296,-0.28572739228476696,-0.36593504028672696,0.019900073662417084,-0.3553807281037158],[0.25019250376642355,-0.4967458692898372,0.26192840201888357,-0.3119260723826808,0.37632485027644613,0.27826037255940483,-0.1709633622096014,-0.18276748177532265,-0.3089927265200533,0.33958725548271085,0.3586466683333648,0.4970055231576318,0.3806062728075936,0.061085730431841956,-0.1101991328504427,0.2510531566369051,-0.0760536941751141,0.30121728245117796,-0.23296065856748016,-0.31774200046171996,0.3398079503126128,0.1728978531154779,-0.038248980990143844,0.06085634402277984,0.24412690110256108,-0.333584331079506,-0.1640685973011543,-0.07369674855060426,-0.49205987662796824,0.2633932847439041,0.038318822828091736,0.47804847328590827,0.36278927193332566,0.024490029661107138,-0.08082957020185189,0.1407518582483871,0.387205719524813,-0.2404816465927082,-0.42252241264990154,-0.41893173721308874,-0.0739344096302661,-0.20412676891653514,0.41321009316519375,-0.37401622686891023,0.14401691930587956,-0.4503486175103344,-0.1527826623583768,-0.013213658655596872,0.09484565859783645,-0.4264373629754833,-0.30729639569760037,0.4281058080948431,-0.09943894970768374,0.00671308050918662,-0.4852664542710463,0.03805958374138341,0.37714467632895265,0.3835657657505055,0.19801394220561097,-0.4466080445630526,0.21832211113768596,-0.42713857691757995,-0.14176485691283314,0.272596515014625,0.15437980360477987,0.21200841288934258,0.17854664487502436,-0.04963712662068365,0.3399639183748069,0.37842718044607804,0.2302786990320469,0.20829000122180896,-0.4070381659662059,0.3965617457659917,-0.1541882387426916,0.41966085223426475,0.0059816026495269625,-0.3822534393805983,-0.348465345580787,-0.26982653699239534,-0.11739223923961128,-0.27015558359642056,-0.05987915256547249,-0.1381236273645936,-0.08747285830796314,-0.34545310932732265],[-0.3361081236916814,-0.3858431628859764,-0.007218965527552745,0.37245602730030014,-0.03517430073653183,-0.47651745010313906,0.1268156492376762,0.07954196264724267,-0.17819310761756013,-0.027301321381559163,0.3886653777051797,-0.0767017419848447,-0.40799533197192905,0.15103385169622796,0.026518472282224703,0.19289292933957303,0.45080392921948276,-0.3424296019233881,0.39807857476730957,0.24483977060575868,-0.006496905153626109,0.2137851074730438,-0.42045086211920235,-0.3658086756592571,-0.4479677005297583,-0.09513077248024426,0.17073251132937506,-0.1090187607958506,0.10123389665918636,-0.3951127958112406,0.030648969285138827,0.13262020330255864,-0.018213207346637117,-0.24256427678148162,0.42124551792178055,0.23517671863139167,0.050644727783190624,0.48131577741259934,0.31117792834069347,-0.4000502650475005,0.28489811381074337,0.049832570526237574,0.39731361175732816,-0.35353236971832125,0.31125787651555903,0.1526889869055359,-0.2614824737100069,0.039023678413017016,-0.18910116153089507,-0.008959493835091759,-0.23555358454561592,0.31108560252846196,0.2581891643105917,0.17913063351267222,-0.17850834952361994,-0.00960737913808507,-0.008128228310918306,-0.3699723014168278,0.3486744886364396,-0.4527196529742269,0.18855210387301147,0.08833513121936465,0.23821173931267103,0.4897505536503899,-0.08911351487863595,-0.260650726532338,-0.07136597765242403,-0.28897106518286764,0.03665353153435669,0.3719901813994445,0.3027526223953634,-0.24116900380841833,-0.46006934091908225,-0.09806766589019511,-0.4815647477200169,0.04028270577927395,0.2918869926088481,-0.328286240031583,0.48706497384124636,0.1024186720415089,0.2762421153175293,-0.1637961582877524,-0.16727936238941254,0.03540792944392268,-0.1267697186403114,0.3146614358333516],[-0.1854689242933697,-0.2658668076456031,-0.34405185485804524,0.24471653397365867,-0.12468036917048197,0.223476592285883,-0.03574704021324626,-0.39103965922030204,0.19156968310386446,-0.49635886888611536,0.3739181005423098,-0.2785699988330951,-0.157094622447691,0.40406369029099654,0.06254057724159745,-0.44087385553713077,-0.006303408982192393,-0.2520476263725876,-0.011264303512214413,-0.4971974623663832,-0.21493944832182243,-0.2757931867036376,-0.2525583390501078,-0.08838093592781737,0.47244698500956583,-0.2605427059513705,-0.058302806779996,0.0978504632270456,-0.2878421786515307,0.18018482459946839,-0.07995646365444808,-0.3093046408074521,-0.2004341892682866,0.45336079987731637,-0.23125844344819058,0.08233082319886664,0.09246174128567519,0.3937715787908227,-0.4807163790086342,-0.36528954680979875,-0.18512746498504717,-0.372830193347757,-0.365780795441935,-0.40779596559803344,-0.07014206795443712,-0.23937903278332906,-0.03189799487876921,0.19303004969149007,-0.20579359320943946,0.3348899647196171,-0.43459471778394054,0.30153239375544594,-0.1363840531179441,0.31843952459903135,-0.14645802997060986,-0.00629475608002561,-0.19614143174316767,-0.45141180615803367,0.016663781807447098,-0.08002896080438293,-0.018407784251378012,-0.06739707652746141,-0.4052956010972012,-0.05793174176882965,0.45789723631258505,0.4099771977073956,-0.3578311246775776,0.4950073461144564,0.28827902755155355,-0.35312737278177153,0.10246248545286274,0.36040457064220377,0.14479222270954017,0.1846782980372249,0.40608954571005407,0.054105073837806494,0.019106081739930114,0.29686878248459614,-0.31515701448468414,-0.1711417480397852,0.039744871385615776,0.12181843997698472,0.40914393536954186,0.3719097145313647,0.24240060760054827,-0.26604428136639113],[-0.2980199779062894,-0.36227378674844457,0.4691301210152079,-0.3083816582318759,0.06042946147341999,-0.10232911029982172,0.4404125003862256,0.25719642557464595,-0.27545178199349174,0.011298037694589036,0.44345627204958615,-0.07637276939652349,0.47343518357269543,0.1280384925388407,0.010810703613758021,0.1010319231386344,0.19958081643595593,-0.48660264067154424,0.42524929294335734,-0.18173894429254855,0.21514243582204118,-0.03961145204202099,-0.11994310822083043,0.076342228631477,-0.12242056312113192,0.2947811870691305,-0.35173233047678665,0.05430004522709042,-0.21287981307670867,-0.18816498084234934,-0.3299370564031472,-0.28745535054547255,-0.49517846342057004,0.09255339727545764,-0.4455459564009484,0.4650020583907015,0.46752119227942335,-0.46091601294134477,0.1095382674608194,0.4983860850794677,-0.46522815503546744,0.14174871128010402,0.16502990554400498,0.005487815587047362,0.3928853493032085,0.44428642401179896,-0.3685664488089533,0.06908553465191836,-0.13749582356211765,0.4092431054966297,0.45213956459172644,0.1840545099758646,0.008656372526780864,-0.09795442168581547,0.34788661778352803,0.437482592990888,-0.16396041642041004,-0.18985258989812415,0.027449803138498985,0.1800737119193373,0.26731814730224124,0.3927355709321747,-0.15592280980498674,-0.3831510566283266,0.04850739766851497,0.31683993214616013,-0.28588873256484015,0.12113009219704307,0.203056930893612,-0.02271283119396117,0.4823965672560101,0.23301844359480495,-0.3349647845683841,0.12079437480273791,-0.18151211080229745,0.24205713606431556,-0.23814436690961316,0.49859707536560827,0.15833845494948984,-0.026507536448640012,0.2882740883649413,0.2573597156234676,0.1680607257976715,-0.10147394625842387,0.015926650616797544,0.04471717201852776],[-0.3004827542784885,-0.028823653541281247,-0.3835346166875574,0.3536476822127883,0.2319123123955371,-0.3421559182536793,0.14138910748743116,0.45897955205153107,0.3492200273141097,0.4704037637357982,0.397955175766474,0.40968458504449445,-0.10980224278402628,-0.06038128406855825,-0.21190286795448932,-0.06778592872103206,0.025898457324468493,0.3729047537354485,0.43606277123602966,-0.2270165486927801,-0.33099088708751745,-0.07105638384384638,-0.27947480580217077,-0.03778573567040755,0.3000069414429193,-0.48862625508352797,-0.3517904038738062,-0.2833070561683635,-0.492961229067455,-0.265236941270671,-0.14138315698999548,0.21560813483900454,0.279593095111592,-0.25170572990563866,0.43321424136156883,0.28147904623817954,0.37044867260106706,0.01607062439745066,0.09750300973707693,0.07728991430791121,-0.1539529318827112,0.24767583043760966,-0.1493393025907186,0.29129599090772595,0.2823512402954943,-0.4514012925556572,-0.46500358238120676,-0.07743076916162439,-0.0685843104913314,-0.4826399594682148,0.3662452435593667,-0.29679738792028565,-0.41669166185737994,0.45465497325914117,-0.014232295278944762,0.39719368565067315,-0.2213121441108814,0.06955153552996207,0.1670087544466461,-0.2986197345959951,0.4892546498982031,0.06876202956470034,-0.08888961025125863,0.24040122643885709,0.37645738124572137,-0.20276951886094208,0.30036050507009027,0.19550880172477259,0.263251477965613,-0.3382433750725864,0.1432001157480275,0.43615862094145896,-0.4906305592069484,0.4141024282309912,0.14079970830256072,-0.36634344984178235,-0.4325224625208628,0.4960045279819332,0.03275498124845011,-0.2722577962814122,0.11575707286137016,-0.4442577440293387,-0.06175900719320937,0.28984083549528983,-0.18813736235054368,-0.06561268096462003],[-0.10099712194942456,-0.2191829122468556,-0.10612619574727555,0.3895880868106939,0.4518502863184962,0.4364150371452731,-0.434229183153659,-0.4242824172393408,-0.08913776457241451,-0.46982872536226294,0.34812875133581267,-0.1685585074381375,-0.07670297836016171,0.06143867739852549,0.3491389800782718,-0.3607617059407864,-0.22175751517258402,0.49526066870049823,-0.28326962593816885,-0.2838694620091985,-0.10667071323368382,0.041186613279446616,0.36947735947487326,0.07086325088128098,-0.11762969043236837,0.09972148098545364,0.47214521282042154,-0.48000871175007487,-0.38442226036723437,-0.07204642610119327,0.02113801779521829,0.09381426412760108,-0.2759519840385868,0.28000618490283613,0.3357777629661919,0.4828248257800679,0.07149508026489826,-0.23668944283923543,0.21325779752428153,0.17631156353986666,-0.1812497382698025,-0.08170094502042169,-0.0017221160098430666,0.22698532103437585,-0.15966327054130192,-0.4230311714551891,-0.1572183996955312,-0.3610261922933017,0.41746560480121364,-0.11513193107643316,-0.013118243394460993,0.22125588228899695,0.3280894844223733,0.48140841579757176,-0.02102731016285342,0.374583777112828,-0.31781133123879723,-0.2749912649546854,0.3711929858879509,-0.3128319954394182,0.10925401657001499,-0.47757326950399936,-0.42418398524019296,0.4028758626867873,0.1949696339337228,0.27573682641630926,0.24880964767256564,-0.20457847083934066,0.3853877509336615,-0.30423590144181334,-0.22127925455510844,0.23300212167878187,-0.07057303788996472,-0.25261442364288567,0.20220397320584038,0.25006050922380385,-0.1856858213525625,-0.2100380873803086,0.14192853531597127,0.2563324545305037,0.063629877636461,0.05526399625951506,0.16826065551891722,-0.3919380402051167,0.21390491100246556,-0.03438972969196996],[0.3230334547581456,-0.35775428817853516,0.2632566246469098,0.43653274205371584,0.411880107441816,-0.06800662789995571,-0.10565921270345846,0.23114075917914434,0.07102011566894006,0.4595677841425049,0.31393497098940815,-0.36254693471278876,-0.45494715900994154,-0.3766047521195942,-0.3772417369791158,0.22532100647932407,-0.4257740280205331,-0.0036872983299085504,0.23167094138242494,0.2061659233268477,-0.21718859019845227,-0.4654548481886944,0.4741871298376309,-0.03339283141351457,0.48463433654386945,-0.49961648100161304,0.2302722428992412,-0.32384311849175207,-0.12253404230452902,-0.29374081229121396,0.07268623347464287,0.47951058341349106,0.18490407737507464,-0.1861113679769122,0.1746727005922889,-0.32443648333433417,0.42252973307466524,0.3293874337990631,-0.023416975075543633,0.4581346637698729,0.11454252617429383,-0.3762697050165703,0.3990635777598376,0.24748117093327837,0.4677408283100485,-0.22234055608165781,0.21172340990826688,0.37703870945005813,0.22162756958287455,0.3011211707208803,0.01873847864656586,-0.0835764657170136,-0.3634137569417626,-0.19046395555507756,0.20663812687255256,-0.29041552982469876,-0.14351461095128004,-0.4473144742012808,0.11455774533329832,0.2860943591751478,0.18773482122359608,0.28672383930475465,-0.3664682018957389,0.1639218614859389,-0.32627008340657315,0.3558009854974158,0.4189388603429298,0.20362636110421828,-0.2882150406498384,0.007008481489041207,-0.09099879539287004,0.09677016490007084,0.3590705543287436,-0.09916260672522403,0.3822788635753662,-0.22455633943021103,0.40473364360527064,0.4990630414686591,0.35838844503732636,-0.4848491314338751,0.2472939344358569,-0.4870511389308755,-0.25128484646252824,-0.2300959189746825,0.10957279509671969,-0.12311229769265453],[0.2976759689252306,0.32622835306553855,0.14782658783107483,-0.22392479514279473,0.0201310763616237,0.19187738266355858,-0.4325806459745859,0.10153723851829632,-0.4631708331667064,-0.2545851606366656,-0.055715992341229814,0.3318092169235156,0.4373121435876427,0.06441587325086107,-0.43041452270389124,0.2477920241783833,0.05849291908092258,0.02289570670527774,-0.21558676339452665,0.07578584259288634,0.3571596323789864,-0.29732651668008103,-0.04800539791463854,-0.3765705628734328,-0.12405138729922738,-0.10126867821209162,-0.07316566248389023,-0.27575036907336314,0.15486732719158924,0.015229664976755819,-0.3766498104264425,-0.1612485877887041,0.3242374694638551,0.44669215010180885,-0.43901217584779506,-0.026543420711816812,0.02996807460984896,-0.3820256568074385,0.06846313230812506,0.17402467513733932,0.2883566424837737,0.21698256806808502,0.1666935531340844,-0.2754331618640271,0.34515615623730234,-0.204289877626031,0.01814402100661039,-0.15751010583541436,0.12243443832756151,-0.16198953275661632,0.22972796764237657,0.09668417988279021,0.37679172667339744,-0.40337206017051375,0.2270666491475034,-0.0034043222877745416,0.26379072726265995,0.48735827037910195,0.3798254993946507,0.20069888444381878,-0.3940062687541641,-0.4051872063912345,-0.44899104139193646,-0.42488569667864207,-0.204211242993522,-0.10788801877646537,0.2675105351847593,-0.103409957829947,-0.07077259103113631,0.10593505832958994,-0.23512229216051095,0.33879463664286924,0.4633849019946529,-0.2312956427608085,-0.25383361219993417,0.006843517007514288,0.4172926538359508,-0.10871542473719431,-0.18707697141422353,-0.30779073253535083,-0.10471772703819249,-0.13757146344861215,0.17574693999665092,-0.2913581239473355,-0.4983805036205693,-0.36469712617211303],[0.4325491153837111,0.13945140340138074,0.036594696499182344,-0.0032217693479179577,-0.0854619206494891,0.07748277421363614,-0.2832229394380723,-0.26822955000096094,0.343127578928782,0.4713384066999392,0.045927056438163194,-0.207229148572034,0.3153743765980034,0.004881392342513058,0.3781020567664667,0.16380483875414054,0.4412192828613716,0.031777745751633835,0.16077851417466305,-0.031590025390573984,-0.20728231430069888,-0.03718597895469178,-0.17664687130281032,-0.4871737205934429,-0.30638888689837473,-0.33904816301760543,0.2851747115420896,0.3784429047123522,-0.22299620375905937,0.33755835128197254,0.09729743533253932,0.3816466438969036,-0.33042586741329927,0.16297798829639265,0.3034351380717276,0.20457015335134465,-0.3773365933707046,0.3055870498730181,0.2081355249725142,-0.23316178918205,-0.09625098825473977,0.3956997781831675,0.3739821313267183,-0.043737262442672065,-0.21377635445139187,0.47417087392908475,0.3346709048735972,0.16553860345025828,-0.4689348794923224,0.33026583579458757,-0.29290247921488843,0.19234359588806094,-0.15910349300704196,-0.2406525521653815,-0.3868696141352985,0.4518478859858813,-0.11490025411846916,-0.3218472937209945,-0.4194666234924086,0.12348949835112899,0.14406016557547852,0.22391197915373184,0.38254170229528695,-0.192025796727067,0.001283351504273944,-0.06671246428906241,-0.4031171045829075,-0.4941904830400904,0.22403982799684374,-0.15191370214026423,0.01757437495028069,0.24528427863332858,0.21635729104859436,-0.07307256873301837,0.4366178938764903,0.4856565894042896,0.20259390111182418,0.4555223238930578,-0.2722497199699502,-0.4995851056838164,0.3054902718719603,0.24295111922759416,-0.3893010084543552,0.3058279669851427,-0.180487770666522,0.26729614628336307],[-0.048069951707744085,0.34160163188626536,-0.15154027998445574,0.09121962979556908,-0.03333514165356666,0.03331129536118438,-0.12426776603215739,-0.19345074157515407,0.22698170529977335,-0.42961880172433586,-0.23369566450655488,0.4866620410927752,-0.04789336813120526,-0.28126764977479024,0.16137944644837143,0.1264329762783155,-0.34046250939301415,0.25382354774285065,0.21985411563726542,-0.16825748786290784,-0.11056605589835478,-0.35233954624798636,0.18513854373446337,-0.41598785549520934,0.3797455275989646,-0.02755003099490494,0.3115440385794198,0.24996504694303412,-0.23416144693702,-0.40607160885287596,0.27136123628229813,-0.3672151646929408,-0.39407784484402675,0.11899353405292945,0.2819177218931328,0.2680719140741996,0.29236217467521164,0.23512242845555176,-0.15868274158664375,0.3564738246089526,0.19901163011070433,-0.466842004043758,0.14222722612076077,-0.30540769464793394,0.23597439870135273,0.14039922860794773,-0.05500537477567735,-0.2832536359157246,-0.16424104048337118,0.0075315992259107345,-0.06546465943986268,-0.20760265568621905,0.27856715742822247,-0.00921453197095401,0.35985539841317027,-0.26248155655292593,0.17950257914544498,0.44981182298533795,0.060726558293480726,0.09291763324270008,-0.09322795930578354,-0.057883190775248394,-0.17704650975642544,0.09849972623905778,-0.32250728081160585,-0.2635026508475583,0.3718329511686933,0.449679605826515,0.08650644166008337,0.2907721136291398,0.21282020413006952,-0.1393645347154372,-0.13635795308044196,-0.4567962398257961,-0.04091870672137998,0.17881717974052425,-0.2738448676059504,-0.14764051692750058,-0.2524755342508096,0.2961017524122299,0.2956146284615834,-0.3132410767617976,-0.16193239360480427,0.38421443231850827,0.18229324621915566,-0.2864899932988938],[-0.48468680271014464,0.045510013733012555,-0.49484046135837223,-0.23576571016825298,-0.032534650755822736,-0.18506373700466017,0.31185694551918075,0.2669358985674064,-0.0957610547895772,0.07497744034981235,-0.4094047271633211,0.12406870087239696,0.29367362524306573,-0.147397495086531,-0.17533165945311435,-0.31009114943276617,-0.25281973373025957,0.1557192881401025,0.3303514313570749,0.45444054630086805,-0.23718849607195414,0.4763624568279934,-0.05977966556607839,0.2763151443817069,0.24866149791188485,-0.1611805391846477,-0.05352637089829915,-0.47595519769511696,0.4914648828466103,0.30312560317626047,-0.3973717345800595,0.2824436823765576,0.009878214984031186,0.14783546636080735,-0.10300183191108525,-0.13956886965889959,-0.46240806701236614,0.05070493465316528,-0.24234591144452022,0.1966630862357669,-0.28166567913568286,0.46189421321350044,0.32610249265190316,0.40105912153941825,-0.03700643802385584,0.0215291810504743,0.44570972202699566,-0.40685562654045393,0.31849741025526845,